{"model": "talker", "input_dim": 40, "output_dim": 6, "actions": ["talk", "call_meeting", "set_personal_goal", "set_medium_term_goal", "set_group_goal", "follow_agent"], "weights": {"net.0.weight": [[-0.015418458729982376, -0.0527103915810585, 0.18489044904708862, -1.0300609040416079e-33, 0.19454048573970795, 0.09307984262704849, 0.10317949205636978, -0.10631703585386276, -0.02303204871714115, 0.14265714585781097, 1.1637377542751338e-33, -5.675540517595838e-26, 8.445114983732565e-27, -1.0524961320820128e-33, 0.07509032636880875, -1.4693907431182653e-31, -1.158541885573507e-33, -1.7079932917447837e-33, -6.291788697054169e-33, 0.07415810227394104, -0.25252440571784973, -0.11394601315259933, -0.006523233372718096, 0.14414861798286438, -0.09461183100938797, -0.03306231647729874, -0.027868719771504402, -1.0526160692399952e-33, -1.0712867766218917e-33, -1.2147179340798387e-33, -0.03635995462536812, 0.03681251034140587, 0.018555304035544395, 0.09069161117076874, -0.02987845428287983, -0.012074651196599007, 1.28345692417695e-31, 0.03311043977737427, 0.12352239340543747, 4.974390159827714e-26], [0.07422616332769394, -0.07640767097473145, -0.23170919716358185, -1.907091460636212e-28, -0.030764250084757805, -0.08010020107030869, -0.024883698672056198, 0.15001705288887024, 0.08488501608371735, 0.06730639189481735, 1.0772680224866617e-33, 1.1454866432751831e-33, 2.579501204362844e-27, -2.1310898197921823e-30, -0.04289821907877922, 1.1649468604175499e-33, 1.370823161425756e-32, -1.0736478672281137e-33, 1.0628508597803148e-33, -0.03298361226916313, 0.13767056167125702, 0.13982391357421875, -0.012067541480064392, 0.14166422188282013, -0.02551933005452156, 0.05697326734662056, 0.004649574402719736, -9.253584099853175e-33, 3.0944696004323184e-31, 1.1812385692714737e-33, -0.07237224280834198, -0.05181153118610382, -0.12216655164957047, -0.09436690807342529, 0.08273468166589737, -0.024208365008234978, 1.0559912073947937e-33, 0.042255889624357224, -0.09933598339557648, 6.496050401470223e-34], [0.05823526158928871, -0.15282729268074036, -0.08796315640211105, -1.190357474426853e-28, -0.16891762614250183, 0.06981897354125977, 0.21365505456924438, -0.19295752048492432, 0.13962185382843018, -0.1481165587902069, -1.1306458434250594e-33, 3.944457105271796e-32, 8.161441665724795e-34, 2.9049821323691226e-26, -0.05749361962080002, -6.799416675438761e-30, 1.1154795785765518e-33, -1.2520644071427602e-31, -1.1010741708137131e-33, -0.08050977438688278, -0.16464465856552124, -0.054346755146980286, 0.06232075020670891, 0.24762971699237823, 0.13826291263103485, -0.09274974465370178, 0.171319380402565, -2.3922409173471344e-29, -1.9628427991838477e-28, 1.0013457811029272e-33, 0.06501352787017822, 0.01201528962701559, -0.08566196262836456, 0.005124174989759922, 0.18172767758369446, 0.018114330247044563, -1.0583950566080268e-32, 0.0891704186797142, -0.023276779800653458, -9.005352900674918e-32], [0.025044210255146027, -0.07120659947395325, -0.15345002710819244, -1.1601305456174921e-30, -0.0409516915678978, -0.28218209743499756, 0.15682946145534515, -0.11879721283912659, 0.07410158216953278, -0.07264617830514908, 1.3269811894335188e-32, 1.2913379966646793e-32, 1.0379760217844728e-33, 9.807238449341618e-34, -0.0775405541062355, -1.1741240733841141e-33, 2.2597164683898436e-25, -1.0654729468666178e-33, 1.1597431856987496e-33, 0.10951491445302963, -0.0197050329297781, -0.08292132616043091, -0.011397650465369225, 0.2707746624946594, 0.12850767374038696, 0.01674242876470089, 0.06413312256336212, 1.1071285177334248e-33, 2.2068062379925595e-32, 6.435858372023223e-31, 0.165947824716568, -0.009912045672535896, -0.10492657124996185, -0.0499868169426918, 0.0813007652759552, 0.00018749434093479067, -9.991864530817643e-34, 0.11996345221996307, -0.03119397722184658, -1.033749109402809e-33], [-0.07726217806339264, 0.058378443121910095, -0.08831894397735596, -2.8080506599450356e-33, -0.19445061683654785, 0.0022373422980308533, 0.13934583961963654, 0.10039512068033218, -0.12664803862571716, -0.08844640105962753, -1.097026153978565e-33, 9.959679966101293e-28, -4.5758151210984464e-32, 5.715911075850453e-34, -0.010274512693285942, 2.0635231652721674e-34, 1.1323649120776408e-33, 8.255622838819333e-30, -3.1641260455031473e-32, 0.0075193666853010654, 0.08783122897148132, -0.12903250753879547, 0.09101036936044693, -0.11241495609283447, -0.15896670520305634, 0.0864676982164383, -0.02476968616247177, -8.646181556870328e-34, -3.5090598893726153e-25, 1.1636334291514983e-33, 0.0700829029083252, 0.08276873081922531, 0.01413490530103445, 0.10053253173828125, 0.03494996950030327, -0.011909659951925278, -1.0635579012652352e-33, -0.08363199979066849, 0.10911787301301956, 1.165224203615947e-33], [0.0765698030591011, 0.15511052310466766, -0.010592200793325901, 1.1569051933609792e-33, -0.09466028958559036, -0.002519498812034726, -0.01114107295870781, -0.06738158315420151, -0.1431104987859726, -0.01808798313140869, -6.795121419080856e-33, -6.469697092801474e-31, 9.98052192868717e-34, -3.183429132111588e-31, -0.007136706728488207, 3.5992738004098935e-30, 1.0230004074259892e-33, 1.1041930879342308e-33, 1.0543697999472306e-27, -0.05558595433831215, 0.18363314867019653, 0.007095670327544212, -0.1155163049697876, 0.08324673026800156, 0.11139441281557083, -0.006909307558089495, -0.06114046275615692, 6.82416347638586e-33, 2.1123702544569617e-32, 1.0276999971063782e-33, 0.1199951097369194, 0.10223986208438873, -0.11155745387077332, 0.09228595346212387, 0.07212785631418228, 0.0019003234338015318, 9.460529939090156e-31, 0.0489843375980854, 0.07817859202623367, 5.872469474635712e-34], [-0.15877917408943176, 0.09770461171865463, -0.1426112800836563, 5.1278072848406286e-30, -0.090574711561203, -0.2654075026512146, -0.036941442638635635, 0.1140294149518013, 0.09697876870632172, 0.03859853371977806, 5.089495572958629e-32, 1.0893172069245748e-33, 1.566633851244665e-33, 1.8623893319375064e-32, 0.0024904620368033648, 5.874206701002594e-28, 9.907035164661545e-34, -1.0941971615194181e-33, 1.8999909035986464e-26, -0.2987557351589203, -0.10628079622983932, 7.931137224659324e-05, 0.19314616918563843, -0.005583863239735365, -0.09651333093643188, 0.010890726000070572, -0.05223192647099495, -3.5613485087858393e-32, -3.41323122473124e-30, 2.5013860406635864e-33, 0.03477228060364723, 0.05432456359267235, 0.01491042971611023, 0.02687542513012886, 0.15011852979660034, 0.01078779436647892, -2.7482122228721827e-31, -0.03537682816386223, -0.009660011157393456, 1.1071187822304366e-28], [-0.09237847477197647, 0.008722837083041668, 0.01994084194302559, 1.0386605635728345e-33, 0.12060728669166565, -0.01548541709780693, 0.053241174668073654, -0.09297842532396317, 0.01936449110507965, 0.12892477214336395, -2.5768985026359992e-27, -5.2644474093957837e-33, 1.0745184677316914e-33, -1.85036824969039e-28, 0.06455764919519424, 4.212300252199171e-32, -1.1111654224735378e-33, -1.594332203895979e-30, -6.09955263785455e-26, -0.008731022477149963, 0.17162610590457916, 0.13643255829811096, -0.05086679756641388, -0.4332764446735382, -0.17258918285369873, 0.1125103309750557, -0.02890131063759327, -1.0783151308138551e-33, -1.338171634693601e-28, 1.6832899106202687e-33, -0.1749112904071808, 0.10215933620929718, -0.09127970039844513, -0.12078659981489182, 0.00822562724351883, 0.04244985431432724, 1.0070820086884533e-28, 0.0005347859114408493, 0.07924903184175491, 2.5948380252249506e-33], [0.036725837737321854, 0.1244577020406723, 0.16028867661952972, 1.0489846182154197e-33, -0.03651875630021095, 0.058938540518283844, -0.07779266685247421, -0.05698959529399872, -0.04532197490334511, 0.10200377553701401, -1.1658615419592835e-33, 3.5182114154302776e-25, -1.0620031263152804e-33, 3.108920375664943e-30, 0.02993081882596016, 1.0711830943467293e-33, -5.063515831251783e-30, -1.0029905548391168e-33, 1.0464527135863439e-33, 0.03551090508699417, 0.09966423362493515, 0.028303325176239014, -0.09803198277950287, -0.20326489210128784, -0.022660531103610992, 0.08489391952753067, -0.03235757350921631, -1.0891175565559273e-33, 1.7896976103600932e-24, -1.70495722493548e-31, -0.09596859663724899, 0.21091361343860626, 0.09045132994651794, 0.1059282049536705, 0.058364469558000565, 0.0025790641084313393, -3.0883070948080196e-30, 0.026546554639935493, 0.0650067999958992, 1.0855801450794176e-33], [-0.11287932842969894, 0.07409389317035675, 0.12237835675477982, 7.69505932291926e-32, -0.03380618989467621, 0.05316293612122536, -0.043442606925964355, -0.143845334649086, 0.13300149142742157, -0.1000998318195343, 4.6710605076698e-26, -8.062751568133572e-34, 1.063456698548469e-33, 3.01580340774635e-25, 0.03729378432035446, -1.0941537733270366e-26, -3.240458381601053e-30, 1.0623561419625117e-33, -1.343437963408237e-32, -0.027458425611257553, 0.19680018723011017, -0.15457576513290405, 0.033730171620845795, -0.015617944300174713, 0.06570690870285034, 0.08073238283395767, 0.13985711336135864, 1.1325191038756901e-33, -2.2412318757533365e-33, -3.551862563248291e-32, -0.08658106625080109, 0.005605815909802914, 0.08796028792858124, 0.08971764147281647, 0.15612709522247314, -0.04612266272306442, -2.7833308444691006e-27, -0.07444778084754944, 0.0174857210367918, -1.0283157541081176e-33], [0.011742960661649704, -0.08777167648077011, 0.006486643571406603, 1.8435079245400646e-31, 0.06223215162754059, -0.0064481450244784355, -0.011780687607824802, -0.008828653953969479, 0.039400286972522736, -0.047836873680353165, 4.7704407656749325e-33, -1.1854515578943402e-26, -2.920938939588997e-25, 1.0527071700521839e-33, 0.03984608128666878, -6.238583618684044e-29, -1.0321694470333954e-33, 1.140521924517386e-33, -1.0679526889338758e-33, -0.12063029408454895, -0.02395951747894287, -0.0004085410328116268, 0.02515476383268833, 0.025169113650918007, 0.08138170838356018, 0.038333162665367126, 0.08824769407510757, 1.1292864025754326e-33, -6.167327220007255e-29, 1.0729413767561702e-33, 0.03452169522643089, 0.004888331051915884, -0.133981853723526, 0.027570689097046852, 0.09303039312362671, -0.06332742422819138, -9.920663552291391e-34, 0.08189186453819275, -0.06858770549297333, -8.335957439308201e-30], [0.09281759709119797, -0.06114005297422409, -0.3354826867580414, -6.250513851909862e-30, 0.02700616791844368, 0.04631228372454643, 0.11139620840549469, -0.06161107122898102, -0.10994946956634521, -0.03376482054591179, -2.199618383910869e-32, -5.138664371070014e-33, 6.432244108930108e-33, -1.0313514682691161e-33, -0.050916776061058044, -9.6704898854326e-34, 8.869330328119009e-27, 3.871240229063489e-25, 2.3889976061818032e-30, 0.12499118596315384, 0.16033616662025452, 0.12633304297924042, 0.09196694195270538, 0.05530193820595741, -0.07634487003087997, -0.08718603104352951, 0.010520046576857567, -1.1294195640448617e-33, 4.121723299067888e-30, 1.0716974649607103e-33, 0.06807047128677368, -0.010382916778326035, -0.09336653351783752, -0.13943034410476685, -0.1932644546031952, -0.10248035192489624, -4.85122108505712e-28, 0.049284134060144424, 0.025825515389442444, 9.684897956424827e-34], [-0.017417626455426216, -0.045152802020311356, 0.07167595624923706, 9.076574119744524e-34, -0.10172905027866364, -0.07151126116514206, 0.029441190883517265, -0.10877054929733276, 0.07083035260438919, 0.004848307929933071, -1.1085403966513578e-33, 4.157268743603985e-29, -3.604211147047048e-32, -2.533161326933745e-26, -0.00903755147010088, -2.268889919233993e-27, 5.793717322437869e-34, -1.8763836632309243e-27, 1.1684041913414098e-33, -0.0111635010689497, 0.12478973716497421, 0.062324974685907364, -0.023023080080747604, -0.03862128034234047, -0.12952272593975067, 0.1364387720823288, -0.08438671380281448, 6.61890967310481e-33, -1.0985989286857668e-33, -1.6379366496222174e-31, 0.10788106173276901, -0.15593671798706055, -0.03404304012656212, -0.03733613342046738, 0.14419600367546082, -0.02747933566570282, 1.0154817435200383e-33, 0.0454428568482399, 0.0859135314822197, -1.0088729174622294e-25], [0.08332712203264236, -0.06745512038469315, 0.010941785760223866, -1.0768331814123536e-33, 0.1357206255197525, 0.3722221851348877, 0.037345800548791885, -0.029152274131774902, -0.15521281957626343, -0.08697797358036041, -1.0635538605034042e-33, 1.1066535078130973e-32, -9.596274498580457e-33, 8.195730179130813e-30, -0.05678119882941246, 2.132599175603497e-27, 1.1016523670975238e-33, 1.7008019746567356e-28, -2.541575719675598e-29, 0.11215493828058243, -0.16078275442123413, -0.011305185034871101, -0.020313803106546402, 0.037448834627866745, 0.003275106195360422, -0.05139324069023132, 0.08406177908182144, 1.0182762058326298e-33, -9.811938590034984e-34, -1.1539112643507326e-33, 0.06960795074701309, 0.08586712926626205, -0.024837173521518707, 0.05103449150919914, 0.01304744090884924, -0.10835976153612137, -1.1748773999590981e-33, 0.020210256800055504, -0.02379566989839077, -2.303863316791102e-34], [-0.05362573638558388, -0.16458459198474884, -0.2240733802318573, -6.634984999162687e-32, -0.10007600486278534, 0.2243565171957016, 0.037596624344587326, 0.02396349608898163, -0.05235898122191429, -0.14853310585021973, -3.95588526135049e-32, 9.900511171014482e-34, 4.379747656881291e-29, -1.612761397441165e-29, -0.06860765814781189, 1.0011699161277846e-33, -2.1219544043190606e-29, 6.85817860947881e-33, 1.0680452591140031e-33, 0.00955705251544714, 0.20325599610805511, 0.13508391380310059, 0.019453415647149086, -0.07158851623535156, -0.05272764712572098, 0.06257376074790955, -0.051918771117925644, -1.2479093027722522e-33, 2.5537590894385195e-33, -3.5169687129855217e-26, 0.11037193238735199, 0.19970932602882385, 0.0381191112101078, 0.08233275264501572, -0.10525160282850266, -0.13224029541015625, -1.0687831573256326e-33, 0.09295802563428879, 0.07411494851112366, -1.4665418150096124e-31], [0.1224484071135521, 0.029598932713270187, 0.1880231350660324, -1.1573335141150601e-33, -0.03212982043623924, 0.2190726399421692, 0.12032649666070938, -0.15739256143569946, 0.074324831366539, -0.02198086865246296, 1.1377872471127933e-33, 1.0602820372817835e-33, 3.1353545164680424e-30, 1.757575878561338e-31, -0.021215660497546196, 1.1208159555873003e-33, 1.1653601201502609e-33, 2.194457692171564e-29, 4.6126964068187726e-29, 0.10707628726959229, 0.012339585460722446, 0.010740607976913452, -0.11731244623661041, -0.03782953694462776, 0.19208484888076782, 0.09685838222503662, -0.017491167411208153, -2.1151516586436203e-29, 1.165339273492633e-33, 4.299715337115726e-30, 0.11563515663146973, -0.11392372846603394, -0.06407101452350616, -0.0533427819609642, -0.09764251857995987, -0.07760854065418243, 1.036329962351337e-33, -0.06663829833269119, 0.06970509886741638, 9.768793458440754e-31], [0.18042783439159393, 0.18870437145233154, -0.04016917943954468, 3.3154169292060965e-30, 0.08226152509450912, -0.027552634477615356, 0.04720219224691391, 0.19495166838169098, -0.014070152305066586, -0.047270968556404114, 9.607777778152124e-29, -1.0581350152171058e-33, 1.0512207207113706e-33, -1.0464286526863505e-33, 0.08184460550546646, -2.711197064332021e-27, 5.485031128379494e-34, -1.1891567389585501e-26, -4.95935189140169e-34, -0.11184597760438919, -0.20361319184303284, -0.13712485134601593, -0.005776295438408852, -0.1389240026473999, -0.08330249786376953, -0.04105202108621597, 0.1817675679922104, 1.7296324897044912e-34, -1.0162654676442506e-33, -8.249744544219176e-32, -0.19481264054775238, 0.24142615497112274, -0.06554514169692993, -0.011040527373552322, -0.0027637912426143885, 0.0018029235070571303, -1.0789098574869743e-33, 0.025875607505440712, 0.15360863506793976, 1.071193379922299e-33], [0.1497209519147873, 0.16220302879810333, -0.18940596282482147, 1.166934272389905e-33, 0.19198592007160187, -0.09082301706075668, 0.13753870129585266, 0.029950348660349846, -0.02585921436548233, 0.15032996237277985, 1.0814368948347537e-33, -2.1859118259066934e-33, 1.104692489362338e-33, 1.1157950335058545e-33, -0.025352368131279945, -4.1825624750831706e-27, -1.8709145518195992e-29, 3.3793130405348734e-31, 1.095814751948745e-33, 0.05095700919628143, -0.2315608710050583, -0.0919894278049469, -0.01880785822868347, 0.02384067513048649, 0.09297909587621689, 0.03725942596793175, 0.07154008746147156, -1.080503475178384e-31, -8.25438551910803e-27, 7.1972194655887745e-34, 0.02948058396577835, -0.004112792667001486, -0.09937364608049393, 0.02807021141052246, 0.08095645159482956, 0.017370231449604034, -1.1130002956867745e-33, -0.011328274384140968, -0.08909958600997925, -5.36384585835467e-28], [0.13593308627605438, 0.05887798219919205, 0.19969229400157928, -1.060092305146721e-33, 0.3488752245903015, -0.14623337984085083, 0.15462219715118408, -0.12682607769966125, 0.1582653820514679, 0.10623980313539505, -1.104500093997887e-33, 5.83801334749021e-32, 1.1127631764356946e-33, -1.5189371623246335e-29, -0.03154345974326134, -1.0327132050061468e-33, -1.0528366874891254e-29, -3.3891923652569243e-32, 5.311809637993848e-34, 0.0907384529709816, -0.1776154488325119, 0.1773717999458313, 0.15902462601661682, -0.0248413123190403, 0.10105457901954651, 0.051449768245220184, -0.047908276319503784, -1.0917369804128417e-33, -1.429812920964674e-33, 4.474756916669094e-33, -0.04527026042342186, 0.04456930607557297, -0.10882751643657684, 0.0740027129650116, -0.08411381393671036, 0.060108914971351624, -1.052300889817181e-33, 0.0383734405040741, 0.02673201635479927, 1.006040595337516e-33], [0.12567780911922455, -0.06554798036813736, -0.1148030012845993, 1.1636899998171316e-33, 0.05756034329533577, -0.03604940325021744, 0.08009680360555649, 0.10436543822288513, -0.08022329211235046, -0.02740085870027542, 2.858505036283346e-25, 1.0966454958469901e-33, 1.372494253344933e-26, 5.504133965881239e-28, -0.007985644042491913, -1.7747613708714897e-31, -1.0895102451374989e-33, 1.1578643232828533e-33, 7.724175583305159e-33, 0.09348967671394348, 0.2089945673942566, -0.09608633816242218, -0.06488858163356781, 0.2799149453639984, 0.05053722858428955, -0.12036833167076111, -0.053938597440719604, -5.083229237291299e-26, 1.0963540099821847e-33, -3.961590875830511e-30, 0.14715097844600677, -0.15235371887683868, -0.06963720172643661, -0.029579561203718185, 0.08398402482271194, -0.0037672591861337423, 1.3306156416421087e-31, 0.053129810839891434, 0.07782384008169174, -2.5615592291401946e-33], [0.0750245600938797, 0.016027256846427917, 0.07729838043451309, -1.1411393345580561e-33, 0.08590534329414368, -0.08527188003063202, -0.005936496425420046, -0.005956901703029871, -0.015224063768982887, 0.10766781121492386, 9.259711547827828e-34, 1.1068554908033471e-33, -4.2880069084267784e-26, 1.0858230499667555e-33, -0.029630204662680626, -2.7396124754727534e-29, -7.073848578405091e-34, 9.946394939959899e-34, -1.0706037960369647e-33, 0.012727784924209118, -0.05386227369308472, 0.0660010278224945, -0.13216467201709747, 0.023891394957900047, -0.07867975533008575, -0.1319182813167572, -0.02491241693496704, -9.116596278762726e-31, 1.1109014064423431e-31, 4.2978026503471186e-26, 0.12725277245044708, -0.12469405680894852, 0.02651931717991829, -0.12450790405273438, -0.02950110100209713, 0.020446985960006714, 1.3598720503419843e-30, 0.011535342782735825, 0.0566091313958168, 1.0977083998795227e-33], [-0.10357005149126053, 0.08825401961803436, -0.02055284008383751, -1.0970909705666227e-26, -0.19194473326206207, 0.15737013518810272, -0.042475439608097076, 0.09618590027093887, 0.0685746818780899, 0.13450485467910767, -1.9156854641000456e-30, -1.7435386610492422e-29, 1.0416645026521624e-33, -6.0762038187667656e-27, 0.02245408482849598, 1.0537653904744124e-33, -1.9489839276746587e-30, 1.0764566558781058e-33, -1.0909804395954921e-33, -0.12543506920337677, -0.1885610818862915, -0.13556475937366486, -0.06681223958730698, 0.06103310361504555, -0.06475033611059189, 0.020783860236406326, 0.12975069880485535, -1.958164233866445e-27, 4.152221663628786e-28, 1.2145388778444206e-26, 0.038663193583488464, 0.16016530990600586, 0.1383136510848999, 0.11978408694267273, 0.1627504527568817, 0.09611368924379349, 5.312069073270495e-34, 0.06856229901313782, 0.004754154942929745, 1.491002423575715e-26], [-0.10243017226457596, 0.10288622230291367, -0.19965760409832, -5.275889010191115e-32, -0.3331354856491089, -0.20000489056110382, -0.1028362587094307, -0.18898746371269226, 0.13843432068824768, -0.15680095553398132, 4.387788426300988e-34, 3.2451237776201447e-31, 4.341987181056855e-26, -2.7565684301106867e-26, 0.13868026435375214, -7.367952699654642e-30, -3.6581475298401776e-32, -1.004309588070434e-33, 2.60614892574121e-25, -0.12842048704624176, 0.2538711726665497, 0.06790564954280853, 0.06757892668247223, 0.1257273107767105, 0.02751978673040867, 0.03407134488224983, 0.02079332247376442, 3.8612113136772476e-33, 1.0549033241073061e-33, -1.561392933779158e-28, -0.022556306794285774, 0.07558616250753403, -0.0037610961589962244, -0.009478922002017498, 0.10386728495359421, 0.0992087870836258, 2.226893321978278e-26, 0.035277727991342545, -0.06231304630637169, 1.0640928430303555e-33], [-0.05252726748585701, 0.06169482320547104, 0.12889064848423004, 1.0581759738483923e-33, -0.06765738874673843, 0.008676429279148579, 0.04721534997224808, -0.0737168937921524, 0.15958534181118011, -0.009662224911153316, 1.9178667878245642e-33, 1.07827031509173e-33, 5.734740107627726e-34, 1.0599314093574523e-33, 0.015062694437801838, 1.1308360347376026e-33, 9.852261719688035e-34, -1.1576586117714594e-33, -1.6311268345237513e-32, 0.03192094340920448, -0.14202386140823364, -0.12699826061725616, -0.048652615398168564, 0.021476540714502335, -0.014827682636678219, -0.012907028198242188, 0.030238909646868706, -5.795858445676762e-26, -6.335612571135381e-29, -1.6976743321355254e-31, 0.15646782517433167, 0.06775994598865509, -0.07723627984523773, 0.062429822981357574, 0.20609955489635468, 0.03382360190153122, 7.125860429028053e-25, 0.06944340467453003, -0.04264894872903824, 3.4751334470293884e-25], [0.009127781726419926, -0.03440120443701744, 0.14493800699710846, 1.7451388021286844e-24, -0.17045088112354279, 0.3144223392009735, 0.036098577082157135, -0.10985644906759262, 0.05642510950565338, -0.13611149787902832, -1.0822679142394874e-33, -1.0844279769446195e-33, -6.723564669842488e-33, 9.099348955449721e-32, -0.04189309850335121, -4.753466177387371e-28, -6.707789535654453e-33, -2.328307431060745e-25, 1.0936429396685873e-26, 0.2431056797504425, 0.0278061144053936, -0.09341170638799667, -0.03164125606417656, 0.061417266726493835, 0.04037916660308838, -0.09562892466783524, 0.06632856279611588, -1.1496694746186911e-33, 1.1080174853362342e-33, 1.645798473389952e-31, 0.08927185088396072, -0.06296299397945404, -0.13865035772323608, -0.07624419778585434, -0.0111653758212924, -0.13876870274543762, -6.653714958806705e-34, 0.027010062709450722, 0.09206371009349823, -1.8490783277823825e-33], [0.1783032864332199, -0.05708278343081474, -0.09984847903251648, 1.0517352749963439e-33, -0.29714080691337585, -0.1768009215593338, -0.09174684435129166, 0.0277420561760664, -0.011520025320351124, 0.16882003843784332, -1.0000567780788536e-33, 1.038784082315167e-33, -3.534186328678965e-35, -1.0037388304618121e-33, 0.09105522930622101, 4.221287670582536e-31, -7.332405209758375e-32, -4.8241881906899035e-29, -1.0801836158186856e-33, -0.16082124412059784, 0.040327876806259155, 0.08848979324102402, 0.13784122467041016, -0.06026982516050339, 0.027091724798083305, 0.0829121544957161, 0.10693320631980896, 9.78536690757663e-34, 6.211770592541788e-31, 1.980741960269133e-33, 0.012288883328437805, 0.008551722392439842, 0.1048213392496109, -0.0984458476305008, 0.026098689064383507, 0.08632301539182663, 2.0171298531947657e-27, -0.005828651133924723, 0.0534001961350441, -3.6573190858271926e-26], [-0.09248393774032593, -0.03866187855601311, 0.20092077553272247, 1.0683546529005594e-33, 0.13414862751960754, -0.012485930696129799, 0.14059346914291382, 0.17016960680484772, -0.042513977736234665, -0.048195190727710724, -1.0920280071001664e-33, -1.003275212551112e-30, 1.0306604979960234e-33, -8.057837450734158e-34, -0.03466402739286423, 2.5240180900785633e-26, -1.0521305349718079e-33, 4.833895328999446e-30, 1.0512983217056241e-33, 0.10497299581766129, -0.11453473567962646, 0.029038462787866592, -0.04864425212144852, -0.03916924446821213, 0.050324633717536926, 0.1442021280527115, 0.056085001677274704, -2.8882780171455422e-31, -4.896847918032592e-32, 1.063364771216815e-33, 0.0007143255788832903, -0.11431077122688293, 0.11514273285865784, -0.030166879296302795, -0.11780153214931488, 0.01960514672100544, -5.744326107043199e-26, 0.028462404385209084, 0.01863105036318302, -6.241425468112653e-34], [0.09342188388109207, -0.07167474925518036, 0.03132599964737892, 8.362080873444491e-30, -0.18338929116725922, -0.14581972360610962, 0.12315298616886139, -0.029838740825653076, -0.08743806928396225, 0.06472355872392654, 1.1142798396547438e-33, -1.386118127697133e-26, 1.0033432949798597e-33, -1.0579302220606735e-33, 0.016896160319447517, -7.029274721589512e-31, 6.246653009965309e-26, -1.3051159292164688e-33, 1.0530622519980788e-34, 0.16618219017982483, -0.10053636133670807, 0.04520326107740402, 0.16442324221134186, -0.23543235659599304, -0.08272258937358856, -0.06294479221105576, -0.008551395498216152, -6.847238701608518e-27, -1.048331392331248e-33, -1.1141141684196748e-33, -0.11383257806301117, 0.11419694870710373, 0.1152140274643898, 0.09202133119106293, 0.047577425837516785, 0.002382954815402627, -7.545605226281288e-34, 0.04068088158965111, 0.021290678530931473, -8.499416162513695e-25], [0.12890344858169556, -0.10408598929643631, -0.07434754818677902, -1.4769986695568207e-24, 0.04772213101387024, 0.10965626686811447, 0.13531692326068878, -0.1395588219165802, -0.00640484131872654, 0.09113097935914993, -8.75633318355955e-35, 1.0598534410212141e-33, -1.077020617660012e-33, -1.0157346584764574e-33, 0.0028072423301637173, 1.0572453129303272e-33, 3.068292399184422e-32, -4.77451963923679e-34, -1.1436617801310276e-33, 0.13416743278503418, 0.03969372808933258, -0.12640458345413208, 0.09172888845205307, 0.12821698188781738, 0.15471570193767548, -0.15097737312316895, -0.05693534016609192, -1.1716266070660976e-33, -2.6301088655115075e-27, -1.0892349223200172e-33, 0.03407544270157814, -0.01818676106631756, 0.08803047984838486, 0.017693353816866875, -0.13022226095199585, -0.018121547996997833, 8.454592655012398e-31, -0.06325492262840271, -0.1477963775396347, 9.382164835187503e-28], [-0.06419558078050613, 0.10347506403923035, 0.05881438031792641, 1.0625631391708518e-33, 0.03487401828169823, -0.12693512439727783, 0.036056775599718094, 0.07187927514314651, -0.10214836895465851, 0.04235510155558586, -1.0747904844713114e-33, -6.620675330271935e-30, 6.829411323978312e-33, 3.513324237233159e-26, -0.07954207062721252, 1.143978245250788e-33, -3.0152496859715046e-32, -9.806658967360861e-34, -1.067019272950926e-33, 0.09843882918357849, 0.12300756573677063, -0.11447487771511078, 0.037677355110645294, 0.009198108687996864, 0.06983215361833572, -0.052052710205316544, -0.08951690047979355, -1.0561699192703171e-33, 5.988779901937975e-32, -6.351269905067227e-34, 0.1480146050453186, 0.13643541932106018, -0.10471867024898529, 0.10188058018684387, 0.047129712998867035, -0.005106897559016943, 1.2357788439202393e-33, 0.11104556173086166, -0.20873256027698517, -1.3055592742577212e-31], [0.05319549888372421, -0.10650281608104706, 0.004937577527016401, 2.715563328071879e-29, 0.004300176631659269, 0.010009463876485825, 0.024501027539372444, 0.11036655306816101, 0.07543215900659561, -0.06798683106899261, 1.0785201076412797e-33, 2.089845578643299e-31, -1.0088040172524061e-33, -1.0339224948195553e-33, 0.03601626679301262, 8.239517249659395e-30, 5.44877443852149e-26, -1.1891930234787024e-26, 1.6871517769047046e-33, -0.23738305270671844, 0.2142486572265625, 0.03968162462115288, 0.09633926302194595, 0.2155940681695938, 0.12156672030687332, -0.17814235389232635, 0.052291568368673325, 5.332587799653112e-25, 1.0018894472401825e-34, 1.1046653978909714e-33, 0.09264253079891205, 0.03544244170188904, -0.058477982878685, -0.09764674305915833, 0.15006482601165771, 0.011777077801525593, 1.1695171457193485e-33, 0.035624910145998, 0.05015178769826889, 1.0131029286630579e-33], [0.15220484137535095, 0.06021711975336075, -0.04639007896184921, 7.78320615453857e-34, 0.16490380465984344, -0.019043490290641785, -0.06895434111356735, 0.09003470838069916, 0.01322625670582056, -0.1243506371974945, 1.0565887809682937e-33, 9.987654791673761e-34, -1.0857937544434811e-33, -3.367506939512503e-30, 0.051275528967380524, -1.493104393146669e-28, 5.424504648749166e-35, 1.1651935305602303e-33, -1.0881310596561982e-33, -0.10852449387311935, 0.22350788116455078, 0.14504265785217285, -0.04141717776656151, 0.02982943132519722, -0.11992990225553513, 0.02272721379995346, 0.021853646263480186, 2.488203789874076e-33, 5.831842828667859e-34, -5.263323563328001e-32, 0.09821230173110962, 0.07973439991474152, -0.08255410939455032, -0.02279737778007984, 0.09350471943616867, 0.019783278927206993, -1.1491958789650044e-33, -0.06483197212219238, -0.06835977733135223, 8.0272525570937e-33], [0.12850342690944672, -0.07859198749065399, -0.04394556209445, 6.21519409988171e-26, -0.17658229172229767, 0.017785925418138504, 0.16997678577899933, -0.12650640308856964, -0.09481729567050934, 0.05681067705154419, -7.223067848740651e-30, 1.0333073816948466e-29, 3.870420060241092e-25, 1.0048212954550264e-34, 0.0021749462466686964, -4.029589344894223e-32, -1.0829598947030378e-33, -2.0540792822285695e-31, -1.0701362615260244e-33, 0.08495877683162689, -0.009153878316283226, 0.05508934333920479, -0.04272645339369774, -0.14314529299736023, -0.0024095464032143354, -0.0427461676299572, 0.16132724285125732, -1.0720231136300865e-33, -9.092155776378621e-29, -9.529464542467503e-34, 0.0892074927687645, 0.10304279625415802, -0.023964593186974525, -0.08945508301258087, 0.020096037536859512, -0.02666882425546646, 1.425306277661713e-33, 0.08318829536437988, 0.06674383580684662, -3.2603711148446606e-32], [0.013693643733859062, -0.13431717455387115, 0.04354831576347351, 1.0224799756692619e-33, 0.08752486109733582, -0.041159529238939285, -0.07496178895235062, -0.001309616956859827, 0.12308472394943237, -0.12731845676898956, 1.1292410358403306e-33, -4.72978996697159e-33, 1.028342394483527e-30, -2.9843857896007586e-25, -0.0539700947701931, -1.1115953044310534e-33, 1.027134290450045e-33, 1.999586714283348e-32, 1.835430044910649e-29, -0.023725051432847977, 0.09552444517612457, 0.13875146210193634, 0.16300034523010254, 0.1333882212638855, 0.05517759546637535, -0.11962880939245224, -0.1357436180114746, -2.02782382597075e-29, 5.887017746251414e-29, -9.89040669504321e-33, 0.10170723497867584, 0.04751370847225189, -0.017458228394389153, -0.04194769635796547, 0.0549226738512516, -0.015283891931176186, -1.2728844151381967e-29, -0.05148458108305931, 0.007963964715600014, 8.436370508927935e-34], [0.028559396043419838, 0.05527535453438759, 0.07738219201564789, -3.178904607335499e-30, 0.16046926379203796, 0.11259559541940689, 0.11734773218631744, -0.12109096348285675, 0.16252349317073822, 0.09250745177268982, 1.0759098673339812e-33, -5.718986415653303e-26, -6.856476581820896e-31, -1.7208404331337342e-28, -0.004872662015259266, -1.5918191662451075e-29, 1.0977505523722593e-33, -1.5578180109554824e-33, -2.7456686441148353e-33, 0.20311005413532257, 0.0966249406337738, 0.09692669659852982, -0.0310619305819273, -0.15136735141277313, 0.0815112441778183, -0.099665567278862, -0.042464811354875565, 5.321535825630156e-29, -3.3374317228252455e-28, -7.296967278506998e-35, -0.1368754357099533, -0.011536669917404652, -0.07529186457395554, -0.06879682093858719, 0.13689063489437103, 0.02231251262128353, 1.122464219072344e-33, -0.0482756607234478, 0.04310078173875809, 1.0817770535125229e-33], [-0.10352698713541031, 0.08434107899665833, 0.01537215244024992, 1.06634152698928e-33, -0.17660458385944366, -0.04792727157473564, 0.10807882249355316, 0.18047617375850677, -0.03225031495094299, -0.033979739993810654, 3.0006054508173574e-33, 1.0243675073559955e-31, 7.868869386999782e-33, 7.01477617426647e-31, -0.08312662690877914, -1.009582874095322e-33, -9.239864978753125e-34, 1.0552758088797229e-33, -3.924910985206323e-33, -0.06915541738271713, -0.04190745949745178, 0.050915975123643875, 0.04791412875056267, -0.2230999916791916, -0.15476073324680328, 0.0634685829281807, -0.02118290588259697, -3.340485316020221e-33, 1.8039363416988985e-27, 1.00173222487076e-33, -0.06946119666099548, -0.14112870395183563, 0.08689575642347336, 0.04144737869501114, 0.05617459863424301, 0.02604650892317295, -1.1228867541901669e-33, -0.020146505907177925, -0.07170633226633072, -1.1633822590695062e-33], [-0.03781170770525932, 0.04466547444462776, 0.03467272222042084, 1.1594226798171583e-33, -0.2731647789478302, -0.34383708238601685, 0.058589451014995575, -0.1165708675980568, -0.05207206681370735, 0.08456823974847794, 5.704890375501113e-29, 6.234378211020554e-26, 8.64034476885815e-28, 1.0588356282172951e-33, 0.06056249886751175, -2.6684087866096467e-25, 1.1473396080811629e-33, 9.756364202622798e-26, 1.0479337446328838e-33, 0.12193133682012558, 0.20848684012889862, 0.1361306607723236, 0.033144161105155945, 0.02757386490702629, -0.03421374410390854, 0.1515829861164093, 0.03456499055027962, -1.1130548459714923e-33, -3.710345264799882e-29, 1.0479649875094871e-29, 0.024466225877404213, 0.10190693289041519, -0.10023260861635208, -0.08590469509363174, 0.07703445851802826, 0.018749387934803963, 1.6308526324108287e-27, 0.05333583801984787, 0.03504732996225357, -1.0344690078571915e-33], [-0.11637342721223831, 0.09560723602771759, 0.07155065983533859, 1.1066334325736371e-33, 0.09995923191308975, 0.2607722282409668, -0.0017095310613512993, -0.1235286220908165, -0.03828010708093643, 0.019636448472738266, 1.0871681644789816e-33, 1.4475279881735505e-33, 1.1454956431538066e-33, 8.362094415139413e-30, -0.06446952372789383, 1.0792489141387896e-33, -1.0012577108621117e-33, -8.220382605513956e-34, 8.786394155694426e-34, 0.09194697439670563, -0.15378406643867493, -0.04735199362039566, 0.06899932771921158, -0.08641444146633148, -0.0031472963746637106, -0.027452925220131874, -0.0005884967395104468, 6.759433410589892e-33, 2.535409806293176e-33, 9.754147430657722e-34, 0.023319685831665993, 0.053754277527332306, 0.05766016244888306, 0.06529094278812408, 0.18453015387058258, -0.031949181109666824, -1.1040118965003111e-33, -0.015411403961479664, -0.0926736518740654, -1.2453513206532368e-28], [0.03735475242137909, 0.06502200663089752, 0.07542655616998672, 1.0445448311536616e-33, 0.10423539578914642, -0.2266729325056076, -0.12289255112409592, 0.05799929052591324, 0.11616269499063492, 0.10078735649585724, 1.0682495930929546e-33, 1.0611404236643722e-33, -7.6372336333954425e-34, 9.777892783886316e-33, 0.018481573089957237, -2.263683795813523e-31, -1.0720165933098593e-33, 1.0050991896664005e-33, 1.64299891886522e-28, -0.16620922088623047, -0.02159207873046398, 0.02021234855055809, -0.06343711167573929, 0.07642967998981476, 0.027012621983885765, -0.1251465529203415, 0.12605710327625275, -1.0847426971899529e-33, -1.0777537404258413e-33, 6.2088652407042955e-31, 0.08107221126556396, 0.0014532333007082343, 0.047147635370492935, -0.05993594974279404, 0.07923735678195953, 0.1141778975725174, -8.664397242327636e-35, -0.08403599262237549, 0.015298047102987766, -2.9638521946519983e-31], [-0.0010791312670335174, 0.10338522493839264, -0.04698861762881279, -1.0828833957347382e-33, 0.015269903466105461, -0.1279592514038086, -0.047311145812273026, -0.051986727863550186, -0.051473211497068405, -0.01179968286305666, 1.5090310464700227e-33, -1.0770288828546663e-33, 1.0892554934711566e-33, 1.097228467576601e-33, -0.023200547322630882, 1.0205351753671241e-33, 1.1743265706531425e-33, -1.042923291798e-33, 2.996813563180994e-34, -0.031932439655065536, 0.06079130619764328, 0.07860583066940308, -0.059591248631477356, -0.10410435497760773, 0.06803592294454575, 0.08821972459554672, -0.03824895620346069, -2.937909357590297e-34, -1.1958571455879943e-32, -1.427245714770875e-32, 0.0034376115072518587, 0.03054964356124401, -0.0470646396279335, 0.08492884039878845, 0.019293656572699547, 0.006704607978463173, 1.9737240626283925e-28, -0.07124433666467667, 0.06284249573945999, -2.3072833326753524e-27], [0.025687390938401222, -0.1304159164428711, 0.045910369604825974, 5.742907179360378e-30, 0.14712150394916534, 0.14344438910484314, 0.07824327051639557, 0.12777940928936005, -0.10236849635839462, 0.015866858884692192, 5.92480750102583e-31, -1.0460863817921697e-33, -1.0346155773090596e-33, -1.0737190397376361e-33, -0.08563384413719177, 6.149343319520804e-26, 6.202546159232467e-30, -6.163765166495732e-32, 1.0734467474915277e-33, 0.082781583070755, -0.07566966116428375, -0.04721536114811897, -0.0005768693517893553, 0.16087853908538818, 0.16156841814517975, -0.05729253590106964, 0.009781347587704659, 1.0664895658090867e-33, 3.613205148198777e-33, -1.6427781508581095e-34, 0.016168851405382156, 0.02900519035756588, 0.054603349417448044, -0.03284680098295212, -0.16073481738567352, -0.04551669955253601, -1.0845831789331265e-33, 0.05892791226506233, -0.07326289266347885, -2.3041147623795824e-33], [-0.05280814319849014, 0.16061341762542725, 0.1721859574317932, 1.3084915496178248e-29, 0.43266335129737854, 0.34306034445762634, 0.197050079703331, -0.135352224111557, -0.09494870901107788, -0.013210901990532875, 1.070529501120573e-33, 1.1267890280929122e-33, -1.0270779952909002e-33, 6.541074314665113e-33, -0.10043782740831375, -9.581346087666999e-34, -2.065856677678893e-32, 1.0499992167769732e-33, 9.712634112974463e-34, 0.20100854337215424, -0.12348125874996185, -0.1370207965373993, -0.07329615950584412, 0.05365065485239029, 0.03982625901699066, -0.07870253175497055, 0.09927813708782196, 1.9983493595423138e-32, 1.0386623084472615e-33, 1.0747349239961358e-33, -0.07121536135673523, -0.05793767794966698, 0.08704907447099686, -0.03823336213827133, -0.030489597469568253, -0.1492813527584076, -1.947649847380967e-32, -0.05181170627474785, -0.09550514072179794, 2.5466315529107055e-33], [0.03837774321436882, 0.16174200177192688, -0.07535424828529358, -2.869380732345904e-29, 0.3821978271007538, -0.10203137993812561, 0.18144889175891876, 0.16886425018310547, 0.011412486433982849, 0.015270845033228397, -2.3115027743496064e-29, -2.2256061483666588e-29, -9.720902062693567e-34, 4.730814641235952e-27, 0.020284561440348625, -3.5832650132097454e-32, 3.2594995868025717e-34, 5.423318815778591e-29, -9.731575184057049e-34, -0.03717358037829399, -0.17863872647285461, -0.088272824883461, -0.11988941580057144, 0.16371197998523712, -0.009053287096321583, 0.1486331671476364, -0.01562921144068241, -1.2654265563224044e-33, 2.224528431635938e-32, 1.0531890309005249e-33, -0.06146945059299469, -0.17209474742412567, 0.14739234745502472, -0.06150945648550987, -0.1136772558093071, 0.028489558026194572, -1.928761945377237e-31, -0.05701839551329613, 0.05260797590017319, -1.0855267886561498e-33], [-0.08990547806024551, -0.06033162772655487, -0.12677671015262604, -1.1789456962758498e-30, -0.12134008854627609, -0.17206741869449615, 0.04520624503493309, 0.18845738470554352, -0.06968823075294495, -0.0510060116648674, -7.653966085774683e-30, -7.10731014916772e-31, 2.6857638503858786e-30, -1.8016355594541873e-33, -0.013285805471241474, -2.1999281580412708e-24, 7.569399344158342e-34, 3.532248852257646e-33, -1.058079362906434e-33, 0.010625716298818588, 0.24469135701656342, 0.04219343513250351, 0.1581781953573227, 0.11815684288740158, 0.07095923274755478, 0.1578364223241806, -0.05696961283683777, -3.149161708543592e-32, -8.020352405254373e-33, -1.0969408388026342e-33, -0.06299525499343872, -0.06495388597249985, 0.17682528495788574, 0.025051726028323174, -0.03915908560156822, 0.004498420283198357, 1.1517019778196598e-33, 0.054256319999694824, -0.04511982575058937, -1.085351291022992e-33], [-0.026356084272265434, -0.13011068105697632, -0.040589701384305954, 8.339120759258453e-33, -0.10456202179193497, -0.13793358206748962, 0.14980988204479218, 0.034703329205513, -0.03867737948894501, -0.02405163273215294, 3.821357349278937e-25, -1.1620444913969727e-33, -1.0377923507921568e-33, -9.509876031137004e-34, 0.004071082454174757, 1.0400590345083284e-33, -2.6121593018263016e-33, -1.371602193409572e-25, 1.0568021148258687e-33, 0.18535290658473969, -0.06185391545295715, 0.0778011828660965, -0.04104828089475632, -0.09577114135026932, -0.030709508806467056, 0.2370961308479309, 0.02009659633040428, 1.1328560483110938e-33, -1.0399114548660025e-33, 4.356619010104749e-26, 0.015560089610517025, -0.06849122047424316, 0.0950174555182457, 0.02468004822731018, 0.10891487449407578, 0.028834134340286255, 1.0807743017299738e-33, 0.038243167102336884, 0.02909485436975956, -5.494134321936155e-34], [0.17526350915431976, -0.0890660285949707, 0.19074203073978424, 2.156135002488881e-27, -0.03863545134663582, 0.1736903041601181, 0.1529237926006317, -0.13032792508602142, -0.11283908039331436, 0.10365738719701767, 1.01655805553501e-33, 1.0380349480867125e-24, -6.15141302013554e-29, -1.117245024154693e-33, -0.09918029606342316, -2.3486020411092417e-27, 1.0281720315566303e-33, 1.0092692558759425e-33, 6.538163827092802e-29, 0.056136924773454666, -0.17224040627479553, 0.13038866221904755, 0.15198983252048492, 0.21496900916099548, 0.15572024881839752, 0.2010713517665863, -0.014317598193883896, -8.342225257941588e-28, -1.9431950411748252e-30, -4.5452516762802305e-26, 0.1207464411854744, -0.12326093018054962, 0.07281126081943512, -0.07745406776666641, -0.0039817276410758495, -0.058436281979084015, 1.0567082589487952e-33, 0.042969319969415665, 0.0095625389367342, -1.0670893434344946e-33], [0.04079790040850639, 0.07999521493911743, -0.01821471005678177, -6.672951969775659e-35, 0.1390484720468521, -0.2842199206352234, 0.03729499131441116, 0.07403437048196793, -0.09071412682533264, 0.101744644343853, -1.058583264273853e-33, -3.6277189769483796e-32, 1.1005451983558431e-33, -1.0541246537172134e-24, 0.08430048078298569, -1.0462031965432826e-33, -4.5442664690271086e-33, -9.940050943885305e-34, 7.459328624541236e-32, 0.17412540316581726, 0.10572145879268646, -0.1452157199382782, -0.0012754490599036217, 0.14762456715106964, 0.06352248787879944, 0.106218121945858, 0.09893817454576492, 1.0635235547896721e-33, 6.98406514640875e-34, 9.975998112146427e-34, 0.13348029553890228, -0.10654987394809723, 0.021018924191594124, 0.032686784863471985, -0.028944216668605804, 0.10331234335899353, 1.1571318433654972e-33, -0.039559632539749146, -0.07323788106441498, -5.974252591737537e-34], [-0.1273026317358017, 0.08635418862104416, 0.09246648102998734, 1.0381833863347976e-33, -0.3376334011554718, 0.012560767121613026, 0.05823412165045738, 0.04327375441789627, 0.12160094827413559, -0.03370741009712219, 1.0153790714353337e-33, 5.259594683658209e-30, -9.796576233192043e-27, -2.465617400606995e-33, 0.014154620468616486, -8.195321800638394e-33, 6.41058345672913e-30, -1.0434928555451718e-33, -8.94302510452165e-34, -0.0019060313934460282, 0.13117440044879913, 0.18099619448184967, -0.021637186408042908, 0.008462297730147839, -0.10117021203041077, -0.1419803649187088, 0.129673033952713, 1.489721737940596e-28, -2.286152992290508e-27, -5.81185918593159e-32, -0.1275673508644104, -0.05607706308364868, 0.007484223693609238, 0.10416153073310852, 0.0664711445569992, 0.026935769245028496, -4.2461750606539925e-33, -0.07830779999494553, -0.024713486433029175, 1.1070243762807817e-33], [-0.09253288805484772, 0.012324554845690727, -0.21121211349964142, 1.083556366250584e-33, 0.08897605538368225, -0.33727896213531494, 0.1451067179441452, 0.039047978818416595, 0.07235686480998993, -0.1266583800315857, -1.095862414571251e-33, 6.231340918386933e-29, 7.159004629134962e-31, 1.0314870174614453e-33, 0.004113021772354841, -6.084032743844799e-34, 3.246812513008345e-34, 3.799424550923464e-25, -5.745438465385552e-32, 0.11129647493362427, 0.2983716130256653, -0.06999211758375168, -0.0885031446814537, -0.14080597460269928, 0.024051988497376442, -0.057613909244537354, 0.018106838688254356, -1.0732517807331843e-33, -1.015922186559612e-33, -1.1448323153650574e-33, 0.040083594620227814, 0.13968831300735474, 0.03702167794108391, 0.07438521087169647, 0.08024509996175766, 0.10687365382909775, -3.41827990262644e-27, 0.05128486081957817, 0.09587771445512772, -1.1120569614702396e-33], [0.11599826067686081, -0.14248836040496826, 0.2011185735464096, -1.1228896010905478e-33, 0.3310733139514923, 0.12246952205896378, 0.18835076689720154, -0.13648277521133423, 0.20555776357650757, 0.013912366703152657, 1.0436565982348215e-33, 1.0802329314801224e-33, -6.126465736971813e-26, -3.271256412938466e-33, -0.009327833540737629, 1.7784524231330717e-33, 1.0067267901648085e-33, 8.468932745696949e-31, 3.426857320147102e-31, -0.22702063620090485, -0.04159656539559364, -0.06312011927366257, 0.05523531138896942, -0.11334434151649475, 0.1462014615535736, -0.0697317123413086, 0.16025188565254211, 1.1009987738713674e-33, 2.1012313228858155e-30, 2.078896742141096e-30, -0.1876671463251114, 0.02881661243736744, -0.059943925589323044, 0.00044782093027606606, 0.14073267579078674, -0.04186263680458069, 1.1640249238716198e-33, -0.11779959499835968, 0.03815968707203865, -1.0498721164502905e-33], [-0.07572104036808014, 0.11745253205299377, -0.006123769097030163, -3.3777049642629486e-30, -0.07786278426647186, 0.05876988545060158, 0.06077529117465019, 0.010953770019114017, -0.06790469586849213, 0.13255132734775543, 1.3629876099567625e-32, 3.69234883185094e-32, 1.0280169471175584e-31, 1.0968781151587583e-33, 0.00962452869862318, -1.6148914355226517e-31, -3.986240051971774e-32, -1.769537900148621e-25, -8.49991125362078e-31, -0.07090293616056442, 0.0684254989027977, -0.04972565919160843, 0.17827922105789185, 0.06489420682191849, 0.06567108631134033, 0.022746827453374863, -0.10218332707881927, -1.1273598870561836e-26, 1.0655717618604838e-33, -7.670244361666913e-34, 0.1378544420003891, -0.0733107179403305, -0.09964809566736221, -0.1272350251674652, 0.10649324208498001, -0.07199528068304062, -7.422915923782989e-32, 0.03066989779472351, 0.004597651772201061, -4.940438826765886e-29], [0.06705670803785324, 0.06864230334758759, -0.014291702769696712, 2.6041690626475794e-33, -0.23312994837760925, 0.08304677158594131, -0.06049728766083717, 0.18018420040607452, 0.09789809584617615, -0.08127947151660919, -1.8796905516664965e-32, 1.1387455505152019e-33, 3.372207412283023e-30, 1.824947265469924e-33, -0.06251392513513565, -1.0619710757271212e-33, -1.98452576109211e-29, -1.2078551592874481e-33, -1.1149587794778398e-33, 0.22870013117790222, 0.11538347601890564, 0.026842694729566574, 0.049899473786354065, 0.29182881116867065, 0.192058727145195, -0.02418140321969986, -0.02519882097840309, 1.3374676276004106e-32, -1.1683715897402737e-33, 1.87421572346174e-33, -0.1116882711648941, -0.06371943652629852, 0.024929294362664223, -0.008548732846975327, 0.032749440521001816, 0.0038467086851596832, -1.2108101233976914e-26, 0.08222610503435135, -0.05822689086198807, -2.0952422073802404e-29], [0.05203055962920189, 0.09803339093923569, 0.04094456508755684, 1.0079291923160051e-33, 0.2867472767829895, 0.31782349944114685, -0.008463310077786446, 0.07997753471136093, -0.11693087965250015, 0.03878572955727577, 1.4778884632504162e-28, -1.0426819481140968e-33, -1.3637018697116808e-32, 2.5792465620292314e-33, -0.0020953614730387926, -3.4035267195290435e-30, 5.498838621499146e-28, 1.543687650503637e-33, -6.230989806913597e-26, 0.09766634553670883, -0.0230365339666605, -0.08168459683656693, -0.032853201031684875, 0.17010119557380676, 0.21556061506271362, 0.11127860844135284, -0.0028889288660138845, 5.545047461828664e-34, -1.1134084126317006e-33, -4.811498120119766e-34, -0.036625467240810394, -0.11304526031017303, 0.018759947270154953, 0.06433256715536118, 0.04280643165111542, -0.06930562108755112, -1.1413714028568473e-33, 0.00017697433941066265, 0.04345908388495445, -8.642155488718762e-34], [-0.0630989670753479, -0.009192402474582195, -0.10758432745933533, 2.0745459084102844e-30, 0.30027592182159424, 0.22968615591526031, -0.1654806286096573, -0.022871144115924835, -0.07812374085187912, -0.04065684601664543, -1.0143622688218724e-33, 1.0297105516237651e-33, 3.4772111047261924e-33, -4.356529894316957e-30, -0.04465177282691002, 1.1448462743604734e-33, 1.1573291060112445e-33, -1.1325123998844706e-33, -1.0647446913820849e-33, 0.12272535264492035, -0.14239634573459625, 0.08235147595405579, 0.05418655276298523, -0.14821960031986237, -0.0022798955906182528, 0.07066817581653595, -0.07493972033262253, 4.5773549254860235e-26, -1.072547677984141e-33, -8.298960141699404e-32, 0.16688501834869385, 0.13341273367404938, -0.02888910472393036, -0.12903979420661926, -0.02501607872545719, -0.1147080585360527, -1.0460403722085945e-33, 0.011667665094137192, 0.07040739804506302, 1.058914055731014e-33], [-0.06478758901357651, -0.1236623004078865, -0.03604731336236, 1.0972962421727657e-33, 0.21170972287654877, -0.2647872865200043, 0.03730578348040581, 0.10696323961019516, 0.06903595477342606, 0.01095268689095974, 5.658343995083816e-34, 1.0930448097136276e-33, -5.4686171394604096e-30, 3.410042907893618e-30, -0.011411338113248348, 2.330877416752196e-34, -1.0826677659897593e-33, 1.1078204981969753e-33, -1.0561821333913061e-33, -0.05691112205386162, 0.23445039987564087, -0.056084249168634415, 0.008834561333060265, 0.12122952938079834, 0.22827333211898804, -0.09501662850379944, 0.01825777254998684, -3.2784167806561563e-34, 1.0746285784915849e-33, 1.3616428352358721e-34, 0.18530291318893433, 0.13509343564510345, -0.040719058364629745, 0.031695134937763214, -0.10744131356477737, -0.0017001264495775104, 1.0849309599570768e-33, 0.08092094957828522, 0.017750917002558708, 2.2696264193420288e-32], [-0.14594122767448425, 0.10938937962055206, -0.03270925581455231, -1.0949551717047062e-33, -0.1595522165298462, -0.21337930858135223, 0.06210575997829437, -0.10958500951528549, 0.10764287412166595, -0.10448524355888367, -2.5619719378599287e-33, -7.847147133017349e-32, 1.1811718334091207e-26, -3.7967320249073484e-31, 0.042269516736269, -6.986582177360868e-31, -5.431652555389198e-28, 1.0844047425640915e-33, -4.0869315756320664e-33, 0.04759445786476135, 0.14604146778583527, -0.1755325347185135, 0.042294301092624664, 0.05607600510120392, 0.08682698756456375, 0.0544574148952961, -0.07240881770849228, 9.932127193605801e-33, 1.712867772944056e-32, -1.9329548942300098e-28, 0.06346048414707184, -0.08020605146884918, 0.1096385270357132, -0.13957813382148743, 0.053958967328071594, 0.07986880093812943, -9.679794657903327e-34, 0.09958244115114212, -0.022555438801646233, 1.1619822269305776e-33], [0.05722987279295921, 0.01691437140107155, 0.12886781990528107, 4.5138889086194554e-26, 0.18570929765701294, -0.07764209061861038, 0.11934488266706467, -0.008653786033391953, 0.04703563451766968, 0.030570922419428825, -1.0713615307157643e-33, -7.089434171475895e-31, -4.6213023443714533e-32, -2.978441414531127e-26, -0.0846342071890831, 1.1607603556541956e-33, -1.1044482069425577e-33, -1.0841520112786647e-33, 1.1047145298814159e-33, -0.03368460759520531, 0.02878272719681263, 0.13081100583076477, 0.15866251289844513, 0.12198595702648163, 0.08368924260139465, 0.0008303405484184623, 0.1124950423836708, 2.2783406500640955e-27, -2.6665447998685783e-30, -4.484732271932768e-34, -0.15246059000492096, 0.1397136151790619, -0.09080806374549866, -0.06219455972313881, -0.1779685914516449, -0.03637291491031647, -7.019711369748963e-33, 0.027278775349259377, -0.02934444509446621, -1.102402846772127e-33], [0.053114306181669235, 0.012612760066986084, 0.06896819919347763, -9.765441649711079e-27, -0.23724190890789032, -0.2566610276699066, 0.005817823577672243, -0.0059875487349927425, 0.020671164616942406, 0.13654360175132751, -4.234869468228471e-34, 2.285363974445036e-34, -2.908406947310153e-32, -1.120175770343583e-33, 0.03599005565047264, -1.0580509857381212e-33, 1.0717375970725313e-33, 1.0953093261120898e-32, 2.6927911444465067e-27, 0.13218295574188232, 0.0732739269733429, -0.16618406772613525, -0.1756884902715683, 0.11263695359230042, -0.0653383731842041, 0.012428905814886093, 0.058289218693971634, 1.1104909825897535e-33, 4.130194851755394e-31, -1.9566018833843716e-30, 0.09812626987695694, -0.03349840268492699, -0.03672149032354355, -0.1449800431728363, 0.04741093888878822, 0.07323243468999863, 1.2087950614154779e-26, -0.06394755095243454, 0.06112908944487572, 3.2139021582654503e-25], [0.08287136256694794, 0.08651530742645264, 0.10216348618268967, -1.0831046274449828e-33, 0.049990180879831314, -0.1327502429485321, 0.11796176433563232, 0.07032537460327148, -0.14098715782165527, 0.03462221845984459, -1.4829540201160192e-30, -9.797482764584755e-34, -6.258239169926739e-34, 8.81401993123214e-26, 0.0081675099208951, -1.0642182903181073e-33, -8.875083851234871e-28, -1.1323889729776342e-33, -1.0521670854992787e-33, 0.017247498035430908, -0.13606999814510345, 0.10983839631080627, 0.19187329709529877, -0.08862723410129547, -0.02093910239636898, -0.02867274358868599, 0.1055758148431778, -1.0090691463298143e-33, 2.4710580980958254e-26, 9.896664182080423e-34, -0.09137830883264542, 0.13016481697559357, 0.07170727103948593, 0.01016158889979124, 0.10337238758802414, 0.020980525761842728, 1.4284092766785422e-27, 0.01555981021374464, -0.002577070612460375, 8.615840199210738e-29], [-0.028727363795042038, 0.1276112049818039, -0.0914020761847496, 1.442992313833544e-31, 0.04792790114879608, 0.09374424815177917, 0.07296207547187805, 0.08927713334560394, -0.10221616923809052, 0.10225693136453629, 1.094932947514636e-33, -7.332475151672249e-33, -1.1004103838474832e-33, 1.0943843222605881e-33, 0.012494158931076527, -1.0564073140278855e-33, -1.0503387326062693e-33, -1.363387840270288e-26, -2.266222242803345e-34, -0.1296386867761612, 0.012639125809073448, 0.11976897716522217, -0.13090769946575165, 0.03743418678641319, 0.028726274147629738, 0.11495824158191681, 0.0979364886879921, 6.058243443514586e-26, -2.5781066998509184e-33, 1.0063104998607244e-33, -0.14801569283008575, -0.0024611824192106724, 0.12100494652986526, 0.08700193464756012, 0.1290452480316162, 0.036851417273283005, -1.1099526429112754e-33, 0.055459894239902496, 0.012357030995190144, -1.1178180776507189e-33], [-0.06317679584026337, -0.13979531824588776, 0.08122118562459946, -2.22615700044194e-26, -0.38713350892066956, 0.11993773281574249, -0.11739136278629303, 0.09752271324396133, 0.12425278127193451, -0.09981061518192291, -1.0128719954509991e-31, -3.788902872081046e-25, 2.3620227365079577e-34, -5.103965325372053e-29, 0.06554216146469116, -4.120749560925068e-28, 1.1646428390075189e-34, 1.1565096841736599e-26, 4.4770245728129675e-29, 0.2187606692314148, 0.19760891795158386, -0.06371637433767319, 0.06901352852582932, -0.10863493382930756, -0.10762415826320648, 0.030693011358380318, -0.04211273044347763, 8.071866679022408e-27, 3.4147542892517135e-30, -6.686168139087321e-31, -0.1257535219192505, 0.16154444217681885, 0.014005335979163647, 0.050375379621982574, 0.14894792437553406, -0.004321809392422438, 8.761563674243228e-34, 0.06800732016563416, 0.03871167078614235, 1.0845773014613724e-33], [0.09411166608333588, -0.13179682195186615, 0.17298626899719238, 1.1003008241005667e-33, 0.23472070693969727, 0.015642402693629265, 0.05471467226743698, -0.04172626882791519, 0.09111106395721436, -0.17414310574531555, -1.135448105190153e-33, 1.0068077890724199e-33, 9.9176348176281e-34, -6.840121693819035e-31, -0.06133916229009628, 1.08615925971819e-33, 1.0738304361944758e-33, -2.992159368153698e-29, -3.4563086111166644e-33, -0.12884140014648438, 0.20871399343013763, 0.029751792550086975, 0.07851990312337875, 0.1471455991268158, -0.059074535965919495, -0.19403141736984253, 0.057818710803985596, -8.133698162335466e-34, 9.864023091680989e-34, -2.21131719756384e-33, -0.06404906511306763, 0.005141980014741421, 0.08845795691013336, -0.014462078921496868, 0.09282875806093216, -0.08689934760332108, -3.2245668181469397e-25, 0.011462963186204433, 0.10775583237409592, -1.1522905515145363e-33], [-0.0022465295623987913, 0.12370184808969498, 0.15408125519752502, 3.510506982213234e-33, 0.04962208867073059, 0.24509505927562714, 0.07319345325231552, 0.08857189118862152, 0.0035318450536578894, -0.07569543272256851, 1.1246224450675529e-33, 1.0994822943233105e-33, 1.001700266118097e-33, -1.1449022940131298e-33, -0.05020771920681, -6.031081976471695e-26, -1.0598647367872416e-33, -9.33257474883454e-34, 3.828209952626385e-34, -0.0788252055644989, -0.21037985384464264, -0.11707380414009094, -0.026645854115486145, 0.04040466994047165, -0.07470285892486572, -0.095670685172081, -0.0817452222108841, 1.1176824366228935e-33, 4.949147590246095e-34, -4.052702282162075e-34, 0.11953052133321762, -0.00529863964766264, 0.11104512959718704, -0.07616692781448364, 0.18662552535533905, 0.006543026305735111, 1.0512636997235726e-33, 0.10683456808328629, -0.05000365898013115, -3.3733179017962447e-32], [-0.02537357062101364, 0.04084509238600731, -0.046313878148794174, 6.815641702347907e-28, -0.0798221006989479, -0.1015738919377327, 0.11292039602994919, 0.08513519912958145, 0.07106735557317734, 0.026250600814819336, -1.0787522677755671e-33, -9.812147570890041e-32, 5.142804682578801e-33, -1.0588604238012578e-33, -0.00988068152219057, 2.274772519715472e-24, -9.64854763033557e-34, -2.7119795696684256e-27, -8.746849791048795e-33, 0.01369665190577507, 0.20250646770000458, 0.15128113329410553, 0.015776824206113815, 0.0020932157058268785, -0.021206162869930267, -0.05219290032982826, 0.08447231352329254, 9.661222765515297e-34, 1.1712910401631363e-33, 1.0979774778832657e-33, -0.07908006757497787, 0.1105995699763298, 0.11910746246576309, 0.019472971558570862, 0.10339270532131195, -0.0027908252086490393, 2.1664069363055755e-31, 0.038416165858507156, 0.009768199175596237, -1.0445873509883828e-33], [0.06159423291683197, -0.021852608770132065, 0.15953433513641357, -1.077367572164497e-33, -0.03290775045752525, -0.16302980482578278, -0.07614272087812424, 0.1427862048149109, -0.0037242083344608545, 0.0645451545715332, 8.20865226627799e-29, -1.119021398156877e-33, 1.0609898134506731e-33, 1.2488768191116354e-31, -0.0276360884308815, -4.2689149988706496e-33, -2.3518945200382728e-24, 1.098228188787777e-33, 1.2528011599820815e-30, -0.009842144325375557, 0.2515259385108948, 0.1622476428747177, 0.07450132071971893, -0.1001521572470665, -0.0750318095088005, 0.0796276330947876, -0.07461167126893997, -1.061626233439048e-33, -1.0948192551703923e-33, 6.353604367934603e-29, -0.10947467386722565, 0.12781302630901337, 0.014233371242880821, 0.12276149541139603, 0.07142359018325806, 0.07957282662391663, -6.513803220708734e-28, 0.016399284824728966, 0.003728907322511077, 1.5210132358114626e-30], [0.13361728191375732, -0.007984324358403683, -0.2520475387573242, -1.7326513188883104e-28, -0.24390070140361786, -0.07187223434448242, 0.053951866924762726, -0.07958799600601196, 0.05368439853191376, 0.014876941218972206, 1.0676711213026554e-33, 5.509208200275527e-34, -1.075872031109564e-33, -2.679215882164188e-34, 0.10433787107467651, 1.9794838139717684e-33, -1.1170042204635072e-31, -1.1120716551496249e-33, -1.85145673488976e-31, 0.03983281925320625, 0.27775758504867554, 0.12362124025821686, 0.03260889649391174, 0.13814690709114075, -0.0890011414885521, -0.19674979150295258, 0.1620176136493683, -8.38672976746711e-30, 3.0535317282444345e-26, 4.1507410824145465e-31, 0.02468315325677395, 0.15825589001178741, 0.10055205971002579, -0.04670441150665283, -0.10629888623952866, 0.01782631129026413, -8.523911349993382e-29, 0.02189531736075878, -0.008821670897305012, -1.0094378658468886e-33], [-0.10092145949602127, -0.060846202075481415, -0.1454746276140213, -1.96408116455615e-34, 0.06974488496780396, -0.14491836726665497, -0.004928515758365393, -0.08877649158239365, 0.038357555866241455, -0.11799692362546921, 4.8581078486623125e-34, 1.1253826593047488e-33, -1.0342367558874079e-33, -3.499728066358178e-33, 0.00038792341365478933, -1.1258359593137846e-33, 4.33435659139717e-31, -1.0527571285620938e-33, -1.062668474484945e-33, 0.08045558631420135, 0.14730341732501984, 0.009592014364898205, 0.11189635843038559, 0.18379217386245728, 0.15126465260982513, -0.07827001810073853, -0.17104902863502502, -1.1766180293821255e-30, -2.5839331257628454e-31, 1.058614121000562e-33, 0.18499276041984558, -0.07386599481105804, -0.05898343771696091, 0.05256437510251999, -0.0085397744551301, 0.007956228218972683, 9.87832279678775e-34, 0.05582734942436218, 0.13507135212421417, -1.0971003570594607e-33], [-0.03447515144944191, 0.11874035745859146, 0.10761599987745285, -1.3574256619042507e-27, -0.10477008670568466, 0.04464390128850937, 0.08344802260398865, -0.013656086288392544, -0.06875837594270706, -0.059249021112918854, 1.6152927052129843e-34, 1.0977466034459245e-33, 7.629198027481618e-34, 1.0672428923840707e-33, -0.004827597178518772, 2.3991034486652575e-32, 4.3437574384905585e-34, 1.0684789981623573e-33, 1.0191280718949913e-33, -0.0662478506565094, 0.11859340220689774, -0.012781806290149689, 0.02976786158978939, -0.10921081155538559, -0.012133331969380379, 0.11349691450595856, -0.004520806949585676, -1.051935843719953e-33, -1.042307167454276e-33, 1.920971268405086e-32, -0.05845316872000694, 0.17033138871192932, 0.10324747115373611, 0.08792367577552795, 0.0891607478260994, -0.002451289677992463, -1.0329211205694485e-33, -0.09932126849889755, 0.021099243313074112, -1.08142311951033e-33], [0.15649767220020294, -0.05669825151562691, 0.061867937445640564, -8.711853120172908e-34, 0.002012206707149744, 0.09281723946332932, 0.07024520635604858, -0.036393750458955765, -0.11242711544036865, 0.07083715498447418, -1.1717058610992819e-33, -8.270475821199035e-29, -1.0567709825926712e-33, 1.1479246001916893e-33, 0.04347292333841324, -9.011087145789222e-34, -1.0278016590006251e-33, -5.499396036688527e-34, -6.342374597686509e-31, 0.03438083454966545, 0.020859448239207268, -0.11610551178455353, 0.027808591723442078, -0.10872843116521835, -0.06388649344444275, -0.058233458548784256, -0.012193122878670692, 1.1188357067836456e-33, -1.1600981298914003e-33, -1.108889279701262e-33, -0.13404002785682678, 0.002937283366918564, -0.004745489452034235, -0.01866236701607704, 0.04722137749195099, 0.011768074706196785, 3.537945532980601e-31, 0.05728243291378021, 0.07773309201002121, -2.227149490164684e-32], [-0.09913145005702972, 0.03152192384004593, 0.09679952263832092, 8.203146538123597e-27, -0.08941786736249924, -0.20377980172634125, -0.037964820861816406, 0.1299877166748047, 0.13767439126968384, -0.11106561869382858, -5.420685669641436e-34, 5.966684816412292e-30, 2.1239912240133383e-25, 1.0857965315933186e-25, 0.041130430996418, 1.0661434378240673e-33, -1.0150772228531417e-31, 2.2755814737232945e-33, -1.0896490085721936e-33, -0.23059935867786407, -0.062126461416482925, -0.10782303661108017, -0.11282888054847717, 0.0001692435034783557, 0.0808679386973381, 0.16935735940933228, 0.07279682904481888, -1.1336712720104883e-33, 2.7997556064431425e-25, 1.1992451223451557e-33, 0.09287296235561371, -0.08667030185461044, -0.1239989772439003, 0.1323225349187851, -0.021744607016444206, 0.12699390947818756, -3.918211953103582e-34, -0.11722483485937119, -0.12189675122499466, -1.0697114305207975e-33], [0.004093138501048088, 0.13445845246315002, 0.12306656688451767, -1.1313406707889908e-33, 0.28614941239356995, -0.03750108182430267, 0.02310802787542343, -0.04343751445412636, 0.020440446212887764, 0.043396417051553726, -1.1504862227873218e-32, 1.0786234225744575e-33, -3.4810584610022353e-34, -1.0958436801300347e-33, -0.002430092776194215, -1.4748378076158232e-32, -6.644177600084987e-31, -2.6765710657925858e-33, -1.0154668661696607e-33, 0.049765683710575104, -0.04006342962384224, -0.08115626126527786, 0.03726678714156151, -0.04216498136520386, 0.11945737153291702, 0.0671304389834404, 0.04746457189321518, 1.4838371793661423e-28, -1.071671200008809e-33, -1.7884246559898756e-34, 0.08691654354333878, 0.08982814103364944, -0.03650647774338722, -0.14401471614837646, 0.12755662202835083, -0.01824706420302391, -8.616238174578153e-31, -0.03699050098657608, 0.06087092310190201, 1.168127674662478e-33], [0.07687612622976303, -0.05576016381382942, 0.17717406153678894, -1.4637136637636103e-32, 0.23383483290672302, 0.2179178148508072, -0.04471447318792343, 0.028718093410134315, 0.09236305207014084, -0.026172013953328133, 1.0549385889378308e-33, 2.032033921583294e-33, 1.1714773743848408e-33, 2.9435746820014436e-31, -0.026023119688034058, 1.045202465141649e-33, 9.05523338714733e-34, 1.0515246043681574e-33, 1.123361176363319e-33, 0.00578124076128006, 0.09284238517284393, -0.02428264543414116, 0.05193931609392166, 0.06731794029474258, 0.0644662156701088, -0.05516152083873749, 0.03875434398651123, 3.128838583891039e-28, -8.509273199197995e-34, -1.0885795842194338e-33, 0.13355860114097595, 0.01702101156115532, -0.030305728316307068, 0.14432476460933685, -0.08107896149158478, -0.04611217603087425, -1.2580211711630097e-28, 0.03972235694527626, -0.04354092851281166, 5.553975203208534e-26], [0.13375155627727509, 0.08776060491800308, -0.06762975454330444, -3.2483546722248465e-25, -0.46712157130241394, 0.08624880760908127, -0.1574285924434662, 6.0365055105648935e-05, -0.14663179218769073, 0.10204722732305527, 1.0449157547226438e-33, -2.1358041292332375e-34, 2.7306584996097963e-33, -2.8599834952691354e-34, -0.10856585204601288, -1.1663095155095422e-33, 1.5235818734047325e-28, -1.218257309306648e-26, -1.6534961981463117e-31, -0.09653963893651962, 0.09153931587934494, 0.15694111585617065, 0.08172469586133957, -0.11611230671405792, -0.12474533915519714, 0.16479820013046265, -0.1542474776506424, 3.944038582263129e-30, 4.932912202265255e-30, -1.675488301550655e-33, 0.011053111404180527, -0.013889879919588566, -0.005086625460535288, -0.052268531173467636, 0.1153886541724205, -0.07988719642162323, -1.0032564186004942e-33, 0.026593618094921112, -0.09446626901626587, 1.3412649151639481e-30], [0.16932760179042816, -0.03798863664269447, -0.19017817080020905, -1.3212114223493015e-32, 0.266470342874527, -0.13608738780021667, 0.15494273602962494, 0.14942143857479095, 0.07613912224769592, 0.01597927138209343, 1.0073936077024117e-33, 1.9565544874521465e-30, 6.773196132303556e-28, 3.440669707907682e-30, -0.010864387266337872, 1.2889523735529516e-25, 1.1236415501330894e-33, 1.1032296417440373e-33, 1.9040376845343154e-32, -0.17691846191883087, -0.02036348171532154, -0.057798419147729874, -0.08671306818723679, -0.07899843156337738, 0.13472458720207214, 0.07287176698446274, 0.0676053836941719, 2.0749208687003357e-34, -5.890887671137372e-32, 6.720475176814939e-32, -0.09252312034368515, -0.1644442230463028, 0.04722573608160019, -0.11139918118715286, -0.07484764605760574, 0.04635898396372795, -1.0618391999546384e-33, -0.09837953746318817, -0.05648725852370262, -1.0503802422505327e-33], [0.1541011929512024, 0.14606939256191254, -0.05734124034643173, 1.761271215640888e-27, 0.09766970574855804, 0.030158331617712975, -0.10695508867502213, -0.052181024104356766, 0.005551393609493971, 0.20138581097126007, -1.9621777514999265e-28, -1.0916262268044751e-33, -7.381362739208823e-30, -1.0925231840954502e-33, -0.04672825708985329, -3.246063732290421e-33, -1.0674210532466172e-33, 1.0976962775940299e-33, -1.0483539838633028e-33, -0.06996610015630722, -0.24343392252922058, 0.18707875907421112, 0.0014665189664810896, -0.19164012372493744, -0.22356978058815002, 0.04807388409972191, -0.02542887255549431, -2.989032571180268e-34, 2.5843429922430336e-27, -3.40503273938143e-32, -0.009991110302507877, -0.09555302560329437, 0.1335347294807434, -0.006089154630899429, 0.20077002048492432, -0.04467451944947243, 7.153696096646648e-31, 0.08927682787179947, 0.025044448673725128, 5.693837343179653e-30], [0.10788202285766602, 0.12080208957195282, -0.048748139292001724, 2.666968468345157e-27, 0.15690259635448456, 0.16564321517944336, -0.13250374794006348, 0.08883219957351685, 0.010653387755155563, -0.017872625961899757, 1.1062420296890118e-33, 1.009999623576887e-33, -5.8439131771468745e-30, 1.0300175576874213e-33, -0.045583177357912064, -1.1175412854652987e-33, 1.0597312079758278e-33, -3.0331555799945577e-31, -2.3546130813359463e-33, -0.05325936898589134, -0.12611468136310577, 0.18298785388469696, 0.11933388561010361, -0.19593070447444916, 0.002920467173680663, 0.11846083402633667, -0.14910052716732025, 3.6665779092939167e-25, 6.976678816130331e-28, 1.0789247348373518e-33, 0.07636874169111252, -0.11584577709436417, -0.050396617501974106, 0.08485639095306396, 0.0179833322763443, -0.034283995628356934, -1.589667295707043e-33, 0.019360976293683052, 0.013518799096345901, 1.1044168228890829e-26], [-0.045813798904418945, -0.12449556589126587, 0.18038485944271088, -1.0880355507401938e-33, 0.15168070793151855, 0.10975667089223862, 0.06271350383758545, 0.1385067105293274, 0.011194249615073204, 0.16502447426319122, 6.516333411173172e-28, -2.3958630137935434e-27, -9.248259845127919e-33, 1.1714550583592744e-33, -0.0610852986574173, -1.07398915738681e-24, 1.028786778367912e-33, 1.7468906819321374e-30, 7.883648472970959e-26, 0.0887945145368576, -0.008723036386072636, 0.016264958307147026, -0.10589294135570526, 0.10849354416131973, 0.016379214823246002, 0.05664269998669624, 0.04894425347447395, 1.7477404985200983e-28, -1.0251809494467645e-33, -1.6329273885916685e-28, -0.006724249105900526, -0.026797214522957802, -0.023350797593593597, -0.05359310284256935, 0.05097775533795357, 0.006202206015586853, -1.0691465503839297e-33, 0.013852236792445183, -0.09505215287208557, 7.260436155876456e-32], [-0.0808366909623146, 0.06650733947753906, -0.11270178854465485, 2.250411641746694e-32, -0.261846661567688, -0.07383519411087036, 0.020237891003489494, 0.10300195217132568, 0.07848058640956879, 0.03989523649215698, 5.3299272378148005e-30, 1.7595890301865563e-31, 3.2851910252322074e-25, -1.042814558570549e-33, 0.01850978098809719, 5.915049897333214e-28, -1.2176303035539532e-26, 2.5548304269612325e-27, 1.0900709926770396e-33, -0.32069674134254456, 0.11406824737787247, -0.1280871480703354, -0.16969726979732513, 0.3347252905368805, 0.1141929104924202, -0.055031176656484604, 0.08000291138887405, -1.0025947802739796e-24, -2.284831087902719e-25, 1.0395026950726033e-33, 0.03478135168552399, -0.048261627554893494, 0.012367002665996552, -0.10842625796794891, 0.07422439754009247, 0.04793056845664978, 2.0968767275730814e-30, 0.08711505681276321, 0.07735217362642288, 1.4441559206450953e-28], [0.07173518091440201, -0.10816136002540588, -0.051436666399240494, -6.213927608350281e-26, -0.08477988094091415, 0.23051023483276367, -0.18403442203998566, -0.16052713990211487, 0.0009979110909625888, -0.02257542684674263, -2.3916002066769554e-25, 5.019587806725396e-28, -1.0088904344542908e-33, -1.150542462845169e-33, 0.0008868621662259102, 8.860305567054285e-33, -5.578118011742332e-32, 9.32296383355382e-32, -1.0830160980266865e-33, 0.17035618424415588, 0.06424830853939056, -0.004816222935914993, -0.017088524997234344, 0.11965658515691757, 0.0934462621808052, 0.11001197248697281, 0.07531812787055969, 1.0826253379905343e-33, 3.55919889696017e-33, -2.053700670191849e-33, 0.009087536484003067, 0.03742381930351257, 0.03911127150058746, -0.07384375482797623, -0.09565726667642593, 0.004825206007808447, -1.0701493021664788e-33, -0.010189558379352093, -0.0008527926984243095, 1.0596241277873076e-33], [0.13607393205165863, -0.0052569652907550335, -0.2529800236225128, -2.082093973927875e-28, -0.40139418840408325, -0.2893345355987549, -0.007065059617161751, 0.09012767672538757, 0.1070319414138794, -0.04338988661766052, -3.4294101647386696e-30, 1.7944740584864742e-31, -6.687672970221045e-34, 3.515834543016351e-33, 0.07198256999254227, 1.0795732771112196e-33, -5.335870161094366e-30, -6.9285108267387205e-28, -1.0705314296659922e-33, -0.07709289342164993, -0.05121558904647827, -0.04500395804643631, -0.030914602801203728, -0.13000385463237762, -0.09750629216432571, 0.08476287871599197, 0.013542957603931427, -1.1109316093003196e-33, -1.0682382973269272e-34, -9.843388656792297e-27, 0.022007929161190987, -0.11135183274745941, 0.029044905677437782, 0.09060867875814438, 0.14448150992393494, 0.06356263160705566, -1.0926394478335863e-33, 0.0728740245103836, 0.055435582995414734, -3.6398201035429196e-32], [0.025960635393857956, -0.17139025032520294, -0.03157135844230652, -3.2945774746953737e-35, -0.3311593532562256, 0.03562972694635391, -0.04512718692421913, -0.2117876261472702, 0.137861967086792, 0.15177255868911743, 1.4896636478309647e-30, -7.576625411032655e-25, -1.0486955200735144e-33, 5.773162304987831e-28, 0.08275191485881805, -2.573268512039728e-32, 1.14829818699006e-33, 9.01530055835295e-34, 1.0708117116002664e-33, -0.14678213000297546, -0.2211497724056244, 0.08964073657989502, -0.0825757384300232, -0.11706418544054031, -0.12785553932189941, 0.0012268931604921818, 0.05487549304962158, 6.802168507714036e-33, 8.133039606659991e-27, 1.137416231708315e-33, -0.11680293083190918, 0.11956734210252762, 0.12929995357990265, -0.01476431917399168, -0.009754217229783535, -0.01886150613427162, -3.6271911329650863e-29, -0.0046945358626544476, 0.06055927649140358, 1.049989206707892e-33], [0.004202009178698063, -0.07962696999311447, -0.18879592418670654, 1.2162691333064581e-26, -0.3984242379665375, 0.14259576797485352, -0.10695839673280716, -0.17683541774749756, 0.1878107637166977, -0.12607142329216003, -2.0642215650368993e-32, -1.2619851680406775e-32, -6.866744273566239e-25, 2.1247287966819166e-30, -0.007894706912338734, 2.3757487940473576e-27, -1.0415392390354029e-33, -1.0473654665826582e-33, -1.0785529847489043e-33, -0.21485517919063568, -0.055170051753520966, -0.25753405690193176, -0.10393018275499344, 0.27138590812683105, 0.15822261571884155, -0.11961201578378677, 0.0058431788347661495, 1.0622780817907774e-33, 5.777118068797105e-26, 3.290221324515854e-32, 0.059514377266168594, 0.08357279002666473, -0.049739349633455276, -0.0015552847180515528, 0.03408578038215637, -0.02630399353802204, -1.0327759286500227e-33, 0.10854904353618622, 0.09737925231456757, -1.1559339411536123e-33], [0.1759042739868164, 0.10875555872917175, -0.034396134316921234, 8.270030449899396e-30, -0.30884623527526855, -0.32855749130249023, -0.017189888283610344, 0.06825096905231476, -0.07331512868404388, 0.10996148735284805, 1.0114992053936509e-33, 1.2501846741263602e-32, -5.526526541492336e-26, -4.7683087862645255e-32, 0.10165492445230484, 1.5414279462851734e-33, 1.370893250276424e-32, -4.534642729700172e-26, 5.7880625517619405e-34, -0.28880926966667175, 0.11521764099597931, 0.1339133381843567, -0.05067737400531769, 0.0454133041203022, -0.07726705074310303, -0.06407860666513443, 0.02422075904905796, -3.159968051620588e-30, -8.862479864261322e-34, 3.7564239819896064e-34, -0.02471059001982212, -0.047359906136989594, 0.10001692920923233, -0.036247458308935165, -0.004045119974762201, 0.16760483384132385, 3.2311882920911465e-32, -0.08502811938524246, -0.04927699267864227, 1.0516587760280443e-33], [-0.07064025104045868, -0.08856754004955292, -0.07757211476564407, -1.1670998517894778e-33, 0.08207441121339798, 0.13635431230068207, 0.1322578638792038, -0.16784006357192993, 0.19491876661777496, -0.061775077134370804, -9.985879611533027e-34, -2.6718534452043495e-28, 1.1123518452484029e-33, -3.11006817536886e-31, 0.019834622740745544, 1.287325648736239e-33, 2.2645233044915216e-32, 1.0786994623652763e-33, 1.0076220025813566e-33, 0.16352330148220062, -0.12880980968475342, -0.08432332426309586, -0.07164536416530609, 0.11081818491220474, 0.1560995876789093, 0.14557646214962006, -0.06485499441623688, 2.709396319834019e-27, 3.415902554010583e-34, 1.6862238710515242e-33, 0.055346954613924026, 0.028689445927739143, 0.1623958945274353, -0.09553240984678268, -0.032796625047922134, -0.024435071274638176, 7.703193156079775e-31, 0.0232484620064497, 0.0038940024096518755, -5.578445827729418e-33], [0.12797604501247406, 0.09523014724254608, -0.14531640708446503, 7.979133778127394e-30, -0.004227295517921448, 0.10514054447412491, -0.13104750216007233, 0.1226944848895073, 0.022667530924081802, 0.0833665207028389, 1.0589144230729987e-33, 1.9285243106892815e-24, 2.6762522210490813e-27, -1.0774395363786335e-24, -0.05343804135918617, -8.11373596869768e-30, -1.0771581872332567e-33, 8.995659774258038e-32, -1.1356553779049817e-33, -0.012369885109364986, -0.20868541300296783, 0.06110531836748123, 0.03893796354532242, 0.09440059959888458, 0.09089372307062149, 0.054237864911556244, -0.059862542897462845, -3.023508415406794e-32, 6.763345000638016e-28, 1.0381674069584661e-33, 0.09057403355836868, 0.16353902220726013, -0.024836009368300438, -0.06896453350782394, 0.006226057186722755, -0.06973631680011749, -1.038520147099209e-33, -0.05820626765489578, -0.06699188798666, 1.0629013693032017e-33], [0.13877633213996887, 0.2249530851840973, -0.13461798429489136, 1.129072701375873e-33, -0.21789433062076569, 0.24280968308448792, -0.0240023210644722, -0.10082945972681046, -0.13639551401138306, 0.11598659306764603, -7.109856358093677e-33, 1.0346742601911046e-33, -1.5655429998456965e-27, 1.1912759552321561e-26, 0.05707594379782677, -1.854847800993012e-33, -1.0923797297036118e-31, 5.350680572946153e-33, 2.353297446017987e-33, 0.1495329737663269, -0.18345139920711517, -0.06217234209179878, 0.1680113822221756, -0.35668492317199707, -0.2657564878463745, 0.07828880101442337, 0.1246919110417366, -5.873493529144187e-27, 1.445203655423791e-26, 2.205339514916321e-32, -0.09121646732091904, 0.15723790228366852, 0.07205910980701447, 0.05485520139336586, 0.09903494268655777, 0.012409358285367489, -4.315116702303766e-34, 0.05531153082847595, 0.08293363451957703, -1.0997783719629239e-33], [0.11277306824922562, -0.012851189821958542, 0.1960330754518509, -5.106639358729213e-29, 0.36607280373573303, 0.3690863847732544, 0.12540702521800995, -0.017394592985510826, -0.06739906221628189, 0.042993929237127304, -1.034826798950223e-33, 1.795156653009669e-28, 6.203831729507408e-27, -3.533831949274616e-32, -0.08967334777116776, -1.2794586447118371e-30, 1.1106485723011606e-33, 1.1500363574258423e-33, 1.018385030895577e-33, -0.12378635257482529, -0.05605844780802727, 0.12840227782726288, 0.06763867288827896, -0.15380710363388062, -0.021850351244211197, -0.14751401543617249, 0.1608007252216339, 1.96826525494227e-28, -1.0466134257046204e-33, -4.646812991892066e-28, 0.034320928156375885, -0.05812842771410942, 0.11664704233407974, 0.13031841814517975, -0.18969587981700897, -0.1757975071668625, -1.8083340772781496e-32, 0.009508926421403885, 0.08339544385671616, 1.0002188677295725e-33], [0.06341413408517838, 0.04562365636229515, 0.02113017439842224, 3.251160082170939e-30, -0.07738766074180603, 0.2095201462507248, 0.0460333414375782, -0.0018640941707417369, -0.12995761632919312, 0.06497270613908768, 1.220782465390212e-24, 4.2953493413444985e-35, -4.130159553864091e-34, -1.0847919210158936e-33, -0.025576861575245857, 1.1172458506741584e-33, 9.805192354487218e-34, -2.7142394558651696e-27, -1.0980523238126344e-33, 0.1668390929698944, 0.02301301807165146, -0.09847313165664673, -0.01583687588572502, -0.06532121449708939, 0.17726658284664154, 0.15017682313919067, -0.06670086830854416, -2.85254022830553e-34, 5.267098539453926e-26, -2.306949958824211e-24, -0.007681974209845066, 0.04498937353491783, 0.07869265228509903, 0.05145306512713432, 0.032026953995227814, -0.014796248637139797, 1.0208291407903258e-33, -0.12923598289489746, 0.09156499058008194, -2.2810123494595897e-34], [0.07335019111633301, -0.055104583501815796, 0.2690814137458801, -1.153681951116826e-33, 0.4257364571094513, -0.012083403766155243, 0.023120004683732986, -0.020307237282395363, -0.03180376812815666, -0.09845545142889023, -6.992338514422127e-33, -7.536460247573875e-34, 9.65439479637595e-34, -1.9315589092887438e-33, -0.030992962419986725, 9.392307745239618e-28, -3.4666682299592683e-25, 3.2256230793910715e-34, -5.4787572388585124e-27, 0.05392993241548538, 0.021689148619771004, -0.03604384884238243, -0.1440618932247162, 0.016250668093562126, 0.06552010029554367, -0.1535920351743698, -0.0060135493986308575, 2.4308454608586474e-28, -1.2811954047013352e-28, -9.120964827193404e-33, -0.01788508892059326, 0.018446624279022217, 0.015544019639492035, 0.10944299399852753, 0.005815925542265177, -0.011833498254418373, 1.0562669893897561e-33, -0.00410577654838562, -0.03686685115098953, -2.9991402154761567e-34], [0.13221387565135956, -0.1594376116991043, 0.18431755900382996, -3.150715712075379e-33, 0.01686427742242813, 0.20150797069072723, 0.20528821647167206, 0.09195253252983093, -0.07775098830461502, 0.11228512227535248, -7.059008733644127e-32, -1.0782302748154051e-33, 6.013449086347259e-26, -1.0574360552558473e-33, -0.0016138487262651324, 1.0842215307492563e-33, 1.5085155679526161e-30, 5.743065316264406e-29, -9.8934306542607e-34, 0.004514807835221291, 0.02618756704032421, 0.05855946242809296, 0.07543647289276123, -0.23111893236637115, -0.15514986217021942, -0.016673004254698753, 0.1435570865869522, 1.837841606516457e-26, -1.0726817344514589e-26, -1.1080267607213462e-33, 0.0051015825010836124, 0.14308485388755798, -0.03989213705062866, 0.14101798832416534, -0.10471009463071823, -0.0364866703748703, 1.9833089344791217e-28, 0.11870119720697403, 0.10954009741544724, 2.372605868971112e-27], [0.11375555396080017, -0.0591912716627121, 0.07813806086778641, -1.0526563850228085e-33, 0.32335859537124634, -0.1651991754770279, -0.008326861076056957, 0.005364355631172657, 0.02196565642952919, -0.05499987304210663, 9.895336240805979e-34, -2.268484279643411e-32, 1.1075763994481874e-33, 3.535176127064781e-32, -0.061810873448848724, -6.223564037345622e-26, 3.076782548192558e-30, -3.3958557255142215e-30, -1.452924792940771e-33, 0.03881265968084335, -0.09863060712814331, 0.035785265266895294, -0.12799181044101715, -0.19986216723918915, -0.05403656139969826, -0.05484091490507126, 0.06313895434141159, -1.516921198916928e-30, -1.2786604370278547e-30, -1.072885999951987e-33, 0.09795905649662018, 0.028803009539842606, 0.0638040080666542, 0.04919491335749626, -0.11496691405773163, 0.021517237648367882, -1.6900831659420677e-32, -0.08392520248889923, 0.029008666053414345, 1.0223390081826594e-33], [0.10342270880937576, 0.054250698536634445, 0.0848497673869133, -9.259883280205643e-34, 0.13631285727024078, -0.06718707829713821, 0.03515557572245598, 0.024725688621401787, -0.03157590702176094, 0.017417622730135918, -6.188410736220326e-29, 1.0589057905363598e-33, -1.0874294364655511e-33, -1.2156245524650096e-32, 0.061278086155653, -7.486231282127742e-34, -1.0433829284562707e-33, -5.601740452342869e-33, -1.1685185265341265e-33, 0.03225121274590492, 0.1334647685289383, 0.05596661567687988, -0.11184822022914886, -0.1433677077293396, -0.18049290776252747, 0.02567257173359394, -0.0125660952180624, -1.0702350765198904e-33, 1.0317749217419006e-33, 1.137227326092718e-33, -0.17360782623291016, 0.2004667967557907, 0.0031510128173977137, -0.11634329706430435, 0.02069081924855709, 0.06709718704223633, 3.367069488106052e-33, 0.01972639560699463, 0.0776330977678299, -1.1659032949308775e-29], [-0.08599230647087097, 0.07802695035934448, 0.17653238773345947, -7.2048552922215535e-28, 0.3328815698623657, 0.25728839635849, 0.044919226318597794, -0.0262001920491457, 0.086614228785038, 0.06661228090524673, -1.0598977057303623e-33, -1.2743901245020881e-25, 4.14667257797652e-28, -1.0083711965590135e-33, -3.0561528546968475e-05, -1.0998671768877086e-33, -1.2299111067287206e-33, 1.37923231064466e-29, -1.1042989191600033e-32, 0.00033983265166170895, -0.051412954926490784, 0.11437158286571503, -0.07701072841882706, 0.02187378890812397, 0.09097672998905182, -0.01833457127213478, -0.08831781148910522, 5.471666879620002e-29, 1.1075882462271918e-33, -1.0524512245243916e-33, 0.0482778362929821, 0.006911259610205889, 0.07966281473636627, -0.051191315054893494, 0.07249050587415695, -0.0313250869512558, -1.1263746663342474e-33, 0.06009237840771675, -0.0025202056858688593, 1.1004826872730842e-26], [0.12656334042549133, 0.028574254363775253, 0.24561141431331635, -1.6281239607361788e-33, 0.28594350814819336, -0.06688365340232849, 0.10698682069778442, -0.13825449347496033, 0.08491050451993942, -0.02018129453063011, 2.171539157498235e-34, 1.0257040444328805e-33, 2.272283792981992e-27, 1.1809509015592565e-30, 0.02489638514816761, 6.1227152345630394e-30, 1.624041870051995e-28, -1.2023392438817107e-33, 3.992698805682367e-32, -0.17896157503128052, 0.20571976900100708, -0.11396804451942444, -0.1500425487756729, 0.11930554360151291, -0.04581964761018753, -0.1062946617603302, -0.050010986626148224, 1.2732519875197214e-32, 1.0819764283746819e-33, -1.1058830447345302e-33, -0.004812452010810375, 0.10353165119886398, 0.09520410746335983, -0.10816624015569687, 0.0027665062807500362, -0.0306707713752985, -1.1914286044395482e-27, -0.07487232238054276, 0.024738552048802376, 2.5970387224364343e-27], [-0.05127713829278946, -0.04290147125720978, 0.1509736031293869, 1.15934351761947e-33, -0.09365899860858917, 0.3193131685256958, 0.039611589163541794, -0.03773149475455284, 0.13803647458553314, -0.028756529092788696, -6.970004024425571e-28, -5.229096725348159e-28, 8.96785169214781e-32, 5.338630259445916e-29, -0.02442941442131996, 2.8459128245837147e-30, 1.0470047367537496e-33, -1.0303674509277833e-33, 9.847755957163948e-25, 0.10436103492975235, 0.10625720769166946, 0.09201961755752563, -0.11038050800561905, 0.1869368851184845, 0.1664983332157135, 0.027701811864972115, -0.1255698800086975, -3.815083932930167e-25, 1.6172135817306672e-27, -1.0568280124357853e-33, 0.010426479391753674, -0.10132323950529099, 0.05733245611190796, -0.14442004263401031, -0.004756815265864134, -0.024404320865869522, -7.362957318861388e-30, -0.07683656364679337, 0.005467752926051617, -8.97118950835697e-32], [0.04932678863406181, 0.021452229470014572, -0.028091222047805786, -1.7149493971152097e-31, -0.0735640749335289, 0.05321059003472328, 0.012351603247225285, -0.0053860186599195, 0.016150446608662605, -0.019637538120150566, -1.4732468517138214e-28, 2.6857058407741005e-27, -2.9905438138569107e-28, -5.976359981275492e-31, -0.0020957503002136946, 3.860414592253528e-25, -1.6804088205507742e-24, -4.424040947586836e-34, 4.2065789007885283e-33, 0.08742941915988922, 0.023149432614445686, 0.06617230921983719, -0.0114718833938241, -0.0487186424434185, -0.04010854661464691, 0.10684965550899506, -0.07897581160068512, 3.2407069469345006e-28, 2.0555212564467458e-29, -1.6845506166741316e-28, -0.05382521450519562, -0.03901875764131546, 0.005576024297624826, 0.04964357987046242, 0.15446414053440094, 0.00218075979501009, 1.5792610482953964e-33, -0.0492701530456543, 0.0967547670006752, 3.8895349529160663e-31], [0.09458101540803909, 0.029527388513088226, 0.01982615515589714, -1.1944929274999384e-28, -0.18598805367946625, -0.32930657267570496, 0.11639035493135452, 0.002079278463497758, -0.0759507417678833, 0.0589771494269371, 3.8108348846571014e-27, -6.497637594350321e-33, 1.8633541556601422e-33, -5.646100598391539e-26, 0.06497041136026382, 1.9882098965568525e-27, 5.325100481215974e-28, 1.067113404334488e-33, 1.8523821780822754e-30, -0.0018710180884227157, 0.18181562423706055, 0.18072709441184998, 0.013883881270885468, 0.1642434000968933, -0.014358945190906525, 0.1225915476679802, -0.051253482699394226, -1.0728421944203196e-33, -1.592731425092984e-29, 3.178663113776066e-28, 0.10853451490402222, 0.00032228679629042745, 0.005875844974070787, -0.18604528903961182, -0.17058195173740387, 0.07832777500152588, 1.0745747518705767e-31, -0.05090884491801262, 0.04539074748754501, 9.742705646191398e-34], [0.1898723542690277, -0.03347893804311752, -0.08343145251274109, -1.053597698858428e-33, 0.04122873768210411, -0.043675296008586884, 0.11111489683389664, -0.03693758696317673, -0.10636407136917114, 0.1828625202178955, 3.76295945507369e-38, -1.0287850334934849e-33, 1.1123960181220549e-33, 8.236504222539367e-30, 0.010255244560539722, 1.1339893901691795e-33, -1.551833451666011e-31, 1.0205152470644578e-33, 2.145596940915984e-24, -0.024496551603078842, 0.09820819646120071, 0.05410003289580345, -0.12365294992923737, 0.08748982846736908, -0.010015086270868778, 0.028750916942954063, 0.0801805779337883, -1.0064018761794016e-33, 1.1587554031020743e-33, 2.264692595661444e-29, 0.024993740022182465, 0.13707761466503143, 0.09021442383527756, -0.053144387900829315, 0.13047678768634796, -0.0029367997776716948, 1.0021101279374502e-33, 0.0689549669623375, 0.03430002182722092, 1.1346976031071012e-26], [0.17945651710033417, -0.06504122912883759, -0.13465923070907593, 1.0582802071365316e-33, -0.32693469524383545, 0.22796359658241272, 0.10666145384311676, 0.03326346352696419, -0.02548125945031643, -0.11794515699148178, 1.8787520663641588e-32, 1.1322231180715729e-33, 9.636913909682276e-34, 1.0798976400836496e-33, 0.200367271900177, 1.0818563075457072e-33, 9.729546537946919e-34, 6.41770714057421e-29, 3.3220480544695583e-34, -0.15752215683460236, 0.20777080953121185, -0.017962289974093437, -0.0058439127169549465, 0.11684537678956985, -0.06688017398118973, -0.020676124840974808, 0.12751886248588562, -1.7050756613515795e-27, -1.041609034012483e-33, 1.0692842117926706e-33, 0.03896947205066681, -0.0414501391351223, 0.09138142317533493, 0.05048822984099388, 0.12112259119749069, 0.030272474512457848, -1.189518428602106e-26, -0.05882846191525459, -0.053284984081983566, 1.085442455752686e-30], [-0.04138835519552231, -0.020352331921458244, -0.14089137315750122, -3.796453996577241e-25, -0.17189155519008636, -0.027586491778492928, -0.12885916233062744, -0.005457192659378052, 0.066102035343647, -0.06650620698928833, -1.4627283469500068e-34, 3.351735237767972e-32, -1.0039621743884684e-33, 1.0886982356804699e-33, 0.005790324416011572, 2.2060675132614647e-33, 1.1112941758391513e-33, -1.4619325135809421e-30, -5.125948093588009e-33, 0.14297842979431152, 0.22694890201091766, 0.03388486057519913, 0.0786847323179245, 0.22100284695625305, 0.1794699877500534, 0.00999597366899252, -0.06385090947151184, -7.625715395878567e-35, -6.006169995603848e-26, 9.202568747053441e-34, -0.02597997710108757, -0.002572794910520315, -0.12354202568531036, -0.08257289975881577, -0.1663096696138382, -0.008188373409211636, 1.024279124874493e-33, 0.08374711871147156, -0.09349095076322556, 1.049630038082418e-33], [-0.05297970026731491, -0.10903254896402359, 0.0015951682580634952, 1.5092707995631324e-30, -0.10355391353368759, -0.2509576380252838, 0.10170316696166992, 0.03373619168996811, -0.08696610480546951, -0.03181944414973259, -1.289567685059024e-25, 2.269631268256226e-32, -9.457687828848738e-32, -5.163578875681914e-29, -0.004034952260553837, -3.4199351160337536e-30, 1.066689124342238e-33, 3.437011945646115e-30, 1.111420813799237e-26, -0.19421561062335968, 0.20364980399608612, 0.10983680188655853, 0.07825516164302826, -0.18321315944194794, -0.18121649324893951, -0.12698780000209808, -0.12760700285434723, 6.808418502091482e-28, 1.1155422103849315e-33, 1.0192219277720648e-33, 0.020855454728007317, -0.10994662344455719, 0.021215243265032768, 0.08476801961660385, -0.06520961970090866, 0.04807571321725845, 1.1248164934709347e-33, -0.0786103680729866, -0.0030247755348682404, 1.1187006167687972e-33], [0.0990438461303711, 0.12776567041873932, 0.05360095947980881, -1.0602999452035343e-33, 0.09590113162994385, 0.3165886402130127, 0.15463820099830627, -0.0151841314509511, -0.12447215616703033, 0.1540333479642868, -1.054156885194534e-33, -3.2300415128291736e-25, 1.0279097493796031e-33, 9.829719778801094e-34, -0.07751869410276413, 2.0907714920335546e-29, 8.636803316002674e-34, 1.0489941691070201e-33, -1.1089982884352015e-33, -0.019953230395913124, -0.06989093124866486, -0.10569080710411072, -0.16882020235061646, 0.16952867805957794, 0.10810588300228119, -0.07267724722623825, 0.10389905422925949, 8.310852265398368e-31, 4.227435949452613e-26, 4.5096309687905114e-32, -0.02618577517569065, -0.03989261016249657, -0.09268909692764282, 0.11619456857442856, 0.038704853504896164, -0.06778889149427414, -1.4327093004653756e-27, 0.07569613307714462, -0.10726718604564667, 3.5943961503900626e-25], [0.1605486124753952, 0.08744470775127411, 0.1449119597673416, 5.316055652158713e-34, -0.17704257369041443, 0.1009606122970581, -0.11218226701021194, -0.05431187152862549, -0.11273680627346039, -0.09116894006729126, -1.1058327188826356e-33, 4.6030831925014993e-26, 2.1734303695387036e-25, 3.0435291780506102e-33, 0.02852305769920349, -1.077278124391239e-33, 7.197011802573087e-35, 9.60420761608057e-34, -2.3847947906996472e-29, 0.011601565405726433, 0.1315544694662094, -0.04993235692381859, -0.0528903529047966, -0.1119944304227829, -0.08367857336997986, 0.12100374698638916, -0.12983955442905426, -1.056343672029048e-33, -1.1414238409251536e-34, -6.335583943145961e-33, 0.030680730938911438, -0.0963006317615509, 0.049399662762880325, 0.14258725941181183, -0.07414690405130386, -0.06517963856458664, -1.872378860430441e-29, 0.027152249589562416, -0.09660515189170837, 1.201092026008389e-33], [-0.021618522703647614, -0.02351314388215542, 0.3253847360610962, -1.0439928998217521e-33, 0.37460941076278687, -0.1281624585390091, -0.06970005482435226, 0.12973307073116302, -0.007944954559206963, -0.033466607332229614, 5.005259060031528e-32, -1.0432308488746331e-33, 1.1748171428166974e-25, 1.5960965061883146e-28, -0.08519776910543442, 4.01857620885103e-29, 3.627370782747334e-25, -1.1670779949413922e-33, -1.0183057768623927e-33, 0.04979778081178665, -0.18937398493289948, -0.014605402015149593, -0.06606626510620117, -0.1107899472117424, 0.12143606692552567, -0.029925072565674782, 0.06925714761018753, 1.0348013605177872e-33, 1.0607769387705789e-33, 1.0477926853107851e-33, -0.024931998923420906, 0.04401311278343201, 0.11328652501106262, 0.03524415194988251, -0.040316302329301834, 0.08713619410991669, -1.0552302584736285e-33, -0.05527155101299286, -0.14534668624401093, -5.464816106066574e-28], [-0.05771254003047943, -0.11887076497077942, 0.11230310052633286, 1.0510567025152325e-33, 0.020877929404377937, 0.18666739761829376, 0.1559683084487915, -0.037492040544748306, 0.06180253252387047, -0.0676843598484993, -5.534533807088419e-28, 1.7565135908992683e-26, 1.0026695897800446e-33, 1.1568156537522252e-33, -0.0018676931504160166, 1.0492919916210605e-33, 2.3744583867542226e-31, 1.030644518619692e-33, 2.0742475032918564e-32, -0.054581087082624435, 0.04134263098239899, 0.05873946473002434, 0.042881473898887634, -0.050552401691675186, -0.06078669801354408, 0.11761966347694397, 0.05044964328408241, 8.1075020870564e-34, 1.3405334243474115e-24, 5.588994464424525e-26, -0.007272128015756607, -0.004935204982757568, -0.016142763197422028, 0.011455798521637917, -0.13994859158992767, -0.05862756073474884, -2.9898303847063006e-31, 0.04893990233540535, 0.09025223553180695, -1.0599801740059122e-33], [0.002883519744500518, -0.08155126869678497, 0.1668974608182907, -1.108454438626954e-33, 0.06066525727510452, -0.08653207868337631, 0.11770138144493103, 0.03595346957445145, -0.03853914141654968, -0.0095816720277071, 1.14853530624114e-33, 1.5050779522730714e-30, 1.0247864241552698e-33, -1.4763273766598688e-28, -0.0028389275539666414, 1.1341917956027118e-33, -1.0408296261565901e-33, -6.547199099410378e-34, -1.0796802654642436e-33, -0.07233849167823792, 0.1189444288611412, -0.10176068544387817, 0.011786012910306454, 0.09181667864322662, 0.06996162980794907, -0.05112144351005554, 0.08146477490663528, 1.0324283312970647e-33, 1.1183519173898853e-33, 1.154789211694003e-33, -0.0698947012424469, -0.03542175516486168, 0.1302529126405716, -0.008486087433993816, 0.05539743974804878, 0.01653112657368183, 3.6922849140428065e-25, 0.013770044781267643, 0.10533449053764343, 3.2257387002807344e-31], [0.13982804119586945, 0.10006747394800186, -0.03100263886153698, -6.322313423016279e-29, 0.24012596905231476, 0.06124569848179817, -0.047244682908058167, -0.019945155829191208, 0.07953482866287231, 0.0388239361345768, -3.857331070560487e-27, 1.4244751664214831e-33, 1.0400478305777971e-33, -1.1011717001106329e-33, -0.03786288946866989, 5.331338915429326e-34, 1.0048485705973853e-33, -1.0731434148477178e-33, 1.0648829038038027e-33, -0.20563332736492157, 0.027958063408732414, -0.06427708268165588, 0.0732959732413292, 0.22346918284893036, 0.1395232379436493, -0.03786039352416992, 0.10579776763916016, -5.86452100371001e-30, 1.053754645721362e-33, 1.1625758515777429e-33, 0.017338721081614494, 0.09101278334856033, -0.032107893377542496, 0.04891408607363701, -0.08649533987045288, -0.02113506756722927, -2.4418211705135286e-33, 0.02318359725177288, 0.07288843393325806, 4.4970508282480113e-32], [0.04236878827214241, -0.04247727990150452, 0.03530323505401611, 1.0891404235944706e-33, 0.1076122298836708, 0.10716269165277481, 0.09615489095449448, -0.07709068804979324, 0.08590967953205109, 0.026030927896499634, -2.1711410000026647e-29, -1.2462569985253776e-33, -2.3428972440209723e-27, -1.0735410362443958e-28, 0.0076703960075974464, 6.270419909925421e-26, -1.1522033077931863e-33, -4.820728799212609e-28, 1.0136520130945865e-33, -0.1111021488904953, -0.20095419883728027, 0.14297297596931458, 0.06009949371218681, -0.12037032842636108, -0.00246794568374753, 0.04090885818004608, 0.0575774684548378, -1.1494358451164652e-33, 8.75128177209338e-34, -8.10463681957627e-32, -0.02897913195192814, 0.010127190500497818, -0.06506948173046112, -0.0306339543312788, -0.12605935335159302, -0.04003329202532768, 1.0426134388339629e-33, 0.010293228551745415, -0.019852900877594948, -1.4749475400134725e-31], [0.04291638359427452, -0.008471561595797539, -0.11026683449745178, 1.1137032045743678e-33, -0.14302998781204224, -0.14710400998592377, 0.015567300841212273, 0.10442452877759933, -0.04829604923725128, 0.21023480594158173, -1.4337712424380666e-30, 6.897749873666968e-28, -1.0836783237894818e-33, -6.176624964592225e-26, -0.006041712127625942, -1.158980767409646e-33, -7.273190563456465e-33, 2.3967017961570925e-31, 7.11779232249417e-34, 0.07958206534385681, -0.20183537900447845, -0.0710945799946785, 0.1347530037164688, 0.010732314549386501, 0.0772906020283699, 0.06632256507873535, 0.026729177683591843, -1.0673676049878533e-33, -1.0317069634747437e-33, -1.1489949428994107e-33, 0.12854737043380737, -0.09365136176347733, 0.1532270610332489, -0.02812582068145275, 0.08569198846817017, 0.06548624485731125, -2.219912467505287e-29, 0.0576658733189106, 0.06324026733636856, 1.0858241519927094e-33], [0.15994590520858765, -0.06464418768882751, 0.15733858942985535, 2.082873590369363e-27, 0.1050628051161766, -0.024528108537197113, 0.10957849770784378, -0.0315028540790081, -0.051609206944704056, 0.07707997411489487, 1.0325141056504763e-33, 1.1381350281367436e-33, 7.325794544561836e-27, -8.086500356963049e-26, 0.011876685544848442, -9.996633548133128e-34, 7.735627020049471e-30, 1.9408258569491045e-25, -2.529485204300536e-25, 0.14512421190738678, -0.28093189001083374, -0.022100599482655525, -0.0388886034488678, -0.022589750587940216, -0.06161568686366081, 0.16377432644367218, 0.15941032767295837, 5.456754097491685e-32, 1.016928887268496e-33, 3.539328266985473e-33, -0.14090362191200256, 0.1712268590927124, 0.061762578785419464, -0.09944812953472137, -0.051131680607795715, 0.01094860304147005, 1.06833527561087e-33, 0.12066595256328583, -0.008147343061864376, -2.2256527919824994e-29], [0.04046493396162987, 0.017716171219944954, 0.0773237869143486, -1.8644882652629759e-31, -0.22455088794231415, 0.022508908063173294, 0.06722299754619598, -0.17099511623382568, 0.13410691916942596, 0.031115049496293068, 9.0409639877543e-34, 3.4305879160386455e-30, 1.6596711828186388e-29, 1.3566265935703244e-26, 0.07951810956001282, 1.7942989098282017e-31, -1.0890484044273203e-33, 7.152053695939679e-31, 1.0422698822428359e-33, 0.0010817691218107939, 0.04565584287047386, -0.1263430416584015, -0.02141026221215725, 0.061412304639816284, 0.05950937792658806, 0.1269448697566986, -0.09571223706007004, 2.213266681476282e-33, 1.216734823167011e-26, -6.279442583566084e-28, 0.11397548764944077, -0.16582244634628296, 0.04771558940410614, 0.0888853520154953, -0.05035842955112457, 0.03555081784725189, -3.142585993145092e-32, 0.004825802519917488, -0.07246765494346619, 1.1568063783671132e-33], [0.009503795765340328, -0.10420737415552139, 0.02656821347773075, -6.54463782134156e-26, 